tree
version=v4
num_class=1
num_tree_per_iteration=1
label_index=0
max_feature_idx=23
objective=binary sigmoid:1
feature_names=ema20 ema50 ema200 rsi14 macd macd_signal atr14 vol_zscore momentum candle_body trend_dir ema20_slope price_vs_ema200 hour_sin hour_cos dow_sin dow_cos price_vs_vwap bb_percent_b bb_bandwidth hurst obv_slope rsi_divergence market_regime
feature_infos=[0.091896361351039166:73270.967376342858] [0.091986261708123462:72822.781586757847] [0.092589946626425085:71884.935554978612] [18.186104884617436:90.357573707759954] [-393.63851282188261:354.32127868385578] [-321.32083827022797:276.38883039583811] [0.00012219738832615088:390.86936415495916] [-1.4720880349154122:6.643523851106468] [-0.01867766701042739:0.035097813578826242] [0:0.99999999997151001] [-1:1] [-0.0083342098260097419:0.014077567023263127] [-0.020411974863954935:0.049369719478964805] [-1:1] [-1:1] [-0.97492791218182362:0.97492791218182362] [-0.90096886790241903:-0.22252093395631434] [-0.025657490278966095:0.027906346723955124] [-0.22550101978436177:1.3737144130975041] [0.0018437522954232542:0.070431935108873189] [0.32025626101581117:0.86698040737216631] [-104.9259505580042:751.56265984583229] none [-1:1]
tree_sizes=2121 1932 1747 1749 1946 1421 1828 1755 1953 1106 2073 1859 1858 2079 1964 1416 1424 2056 1442 1422 2150 1638 1743 1635 1753 1534 1316 1106 1744 1762 1715 1195 1315 1541 1866 1413 1417 1518 1537 1315 1734 1392 2036 1010 1617 1854 1216 1955 1426 2044 1430 1417 1530 1425 1730 1542 1324 1948 1834 1006 1752 1655 1318 1102 1499 1613 1499 1644 1741 1501 1749 1417 1645 1654 1432 1211 1424 1646 1428 1190 1326 1736 1717 1440 1001 1431 1630 1305 1068 1629 1178 783 1303 1112 1316 1639 1314 1315 1407 1638 1433 1003 1394 1316 1107 1328 1401 1644 1308 1436 1741 1438 1666 1959 2247 2056 2265 2079 2159 2079 1728 1840 987 1725 1714 1326 1860 1320 1330 1298 1938 1539 1713 1607 1522 1939 2126 1321 1957 2160 1658 1850 2046 1837 1751 2176 1931 977 1002 1741 1285 1731 1227 1230 1210 1312 1193 1012 1410 1223 1966 1828 1420 1941 2074 1631 1318 1720 1102 1724 1412 1329 986 1206 1206 1313 1855 1512 1327 1110 1184 1219 1716 1221 1102 1503 1509 1978 1864 1470 1628 1720 1748 1594 1542 1825 2143

Tree=0
num_leaves=19
num_cat=0
split_feature=14 14 14 19 16 7 8 20 8 12 8 3 7 3 7 4 19 12
split_gain=39.5836 18.314 41.4319 15.1198 17.4432 17.6361 14.7374 11.3147 10.0364 10.908 9.99767 8.32304 8.11724 2.80524 2.05155 1.01038 0.383225 0.312316
threshold=-0.37940952255126015 -0.70710678118654757 -0.9159756150367534 0.014682012862795092 -0.56174490092936669 -0.6174705179726504 0.0016365151813316772 0.62724461893003125 -0.0012542019268962921 0.0035079631565179408 0.00065057335480278599 45.047518695200473 1.1038051462064036 56.795173350284735 -0.21389719937648452 -0.00027342289644727286 0.018684230416580742 0.0032151573732780805
decision_type=2 2 2 2 2 2 2 2 2 2 2 2 2 2 2 2 2 2
left_child=1 2 6 4 5 15 14 -7 16 -10 -5 -3 -8 -13 -1 -2 -4 -6
right_child=3 11 8 10 17 7 12 -9 9 -11 -12 13 -14 -15 -16 -17 -18 -19
leaf_value=0.085317940616338531 0.035039840342394858 0.074215379514710605 0.032951860965160902 0.089334311205458816 0.029113676767668573 0.089143232785432486 0.088909840652815639 0.059517095696652721 0.089722021223317711 0.056421814002928172 0.05967536968358117 0.11384127802834362 0.05640061238231403 0.086051874844559992 0.10983658965680715 0.057796180918181672 0.055621357681101269 0.052936981135840416
leaf_weight=10.702474221587179 12.114009007811548 11.752802580595015 9.9184731841087359 17.332359880208969 20.801273196935657 19.476294785737991 10.435592055320742 20.853428959846497 9.9534286409616453 24.779537498950958 17.461084753274918 16.574991568923 11.192960366606711 10.934955775737761 21.792787596583366 10.211433231830595 10.228633537888525 9.7636704295873624
leaf_count=45 49 49 40 73 84 82 44 86 42 102 72 71 46 46 93 42 42 40
internal_value=0.0700691 0.0805035 0.0738405 0.057983 0.0518335 0.0619155 0.0919736 0.0738561 0.0559721 0.066903 0.0744645 0.0973007 0.0719457 0.105619 0.103876 0.0422513 0.0405386 0.0341274
internal_weight=276.28 148.267 109.004 128.014 93.2201 62.6552 54.1238 40.3297 54.8801 34.733 34.7934 39.2627 21.6286 27.5099 32.4953 22.3254 20.1471 30.5649
internal_count=1148 620 454 528 383 259 228 168 226 144 145 166 90 117 138 91 82 124
is_linear=0
shrinkage=1


Tree=1
num_leaves=17
num_cat=0
split_feature=14 13 13 8 7 11 4 18 10 7 13 14 17 0 11 6
split_gain=37.64 50.9173 31.5617 22.5599 12.6546 9.38893 9.00845 7.79809 11.2742 9.68867 6.70284 5.79961 5.44419 3.92157 3.03208 2.7922
threshold=-0.37940952255126015 -0.25881904510252113 -0.70710678118654735 0.0038508869290344587 -0.64022043703155218 -0.0027716017105969821 -0.022209021580160023 0.53521517144006325 1.0000000180025095e-35 -0.15779347064032304 -0.37940952255126059 0.98296291314453421 0.0045797523006734153 86.332524673645693 0.0011343195842246081 2.4972570867948476
decision_type=2 2 2 2 2 2 2 2 2 2 2 2 2 2 2 2
left_child=1 2 -1 6 13 -4 -3 8 10 14 -6 -11 -8 -2 -9 -7
right_child=4 3 5 -5 7 15 12 9 -10 11 -12 -13 -14 -15 -16 -17
leaf_value=0.020709394293559592 -0.010513663979700367 0.003776517858069262 0 -0.007806354716457263 0.0074659355383637632 -0.037997055169257749 0.044397196651468643 -0.038379713224243522 0.02020435233339082 -0.013037025593682847 -0.018690052872515857 0.013239078166927629 0.020566508112007758 -0.035499105516496432 -0.010332485618257416 -0.013588886603351799
leaf_weight=17.512700706720352 13.342797026038168 11.011127531528471 11.789705142378805 14.999629870057104 11.947835773229601 21.741721242666245 32.198766574263573 11.405874118208887 16.118990480899811 14.087135270237923 19.015988752245903 10.470405027270317 26.301347523927689 21.711853459477425 9.944965332746504 12.645403921604155
leaf_count=74 55 46 49 62 50 88 138 46 68 58 78 44 111 88 41 52
internal_value=-0.00127919 0.00889901 -0.0109795 0.0238457 -0.0130622 -0.0237109 0.0308403 -0.00671593 0.00172527 -0.0151319 -0.00856442 -0.00128566 0.0353553 -0.027804 -0.0285677 -0.0310726
internal_weight=276.246 148.2 63.6895 84.5109 128.046 46.1768 69.5112 92.9912 47.0828 45.9084 30.9638 24.5575 58.5001 35.0547 21.3508 34.3871
internal_count=1148 620 263 357 528 189 295 385 196 189 128 102 249 143 87 140
is_linear=0
shrinkage=0.03


Tree=2
num_leaves=15
num_cat=0
split_feature=14 13 13 8 20 20 8 12 17 12 5 17 15 9
split_gain=35.6898 48.2821 29.9669 21.5235 14.0287 18.5989 16.6045 10.8768 18.3666 9.23511 4.89188 4.45258 4.30744 1.885
threshold=-0.37940952255126015 -0.25881904510252113 -0.70710678118654735 0.0049530937085837676 0.52962418369927688 0.67752075046767957 -0.0007855312430419813 -0.003750426470327241 0.0023735542177060801 0.0026222286452524612 -0.0013438732544181662 0.0045797523006734153 0.70440582564969101 0.51846596209686424
decision_type=2 2 2 2 2 2 2 2 2 2 2 2 2 2
left_child=1 2 -1 10 13 7 -7 -6 -9 -4 -3 -12 -11 -2
right_child=4 3 9 -5 5 6 -8 8 -10 12 11 -13 -14 -15
leaf_value=0.020197819034117659 -0.037524261210750649 0.0080530848993541747 -0.00056416851645097116 -0.0098296729754390483 -0.014123806060281872 0.00036351420162952639 -0.036861241411902342 0.030183812191897301 -0.0072407109374152271 -0.038114934135098651 0.04156255424659662 0.019851498963217848 -0.010015875928967494 -0.012995951114452405
leaf_weight=17.493843168020248 17.068514063954357 11.684537351131437 13.006720215082167 13.091542825102804 18.236272066831589 17.306169047951698 23.463793948292732 20.731762573122978 21.039089009165764 22.500547036528587 31.919903188943863 27.704315230250359 10.687798991799353 10.216584786772726
leaf_count=74 69 49 54 54 75 72 95 88 87 91 137 117 44 42
internal_value=-0.0012602 0.00865596 -0.0106936 0.0232261 -0.0127314 -0.00699373 -0.0219124 0.0035602 0.0119108 -0.0230933 0.0295678 0.0330525 -0.0308952 -0.0308342
internal_weight=276.151 148.089 63.6889 84.4003 128.062 100.777 40.77 60.0071 41.7709 46.1951 71.3088 59.6242 33.1883 27.2851
internal_count=1148 620 263 357 528 417 167 250 175 189 303 254 135 111
is_linear=0
shrinkage=0.03


Tree=3
num_leaves=15
num_cat=0
split_feature=14 14 14 14 19 16 7 8 18 8 8 11 14 18
split_gain=33.837 16.9187 26.5182 14.9055 13.9943 15.6883 16.6789 10.9721 10.5074 9.35046 9.26602 4.80576 0.0513432 0.0429955
threshold=-0.37940952255126015 -0.98296291314453399 -0.70710678118654757 -0.9159756150367534 0.014682012862795092 -0.56174490092936669 -0.020430392657353604 0.0016365151813316772 0.48240915902180831 -0.00098224268955970895 0.00065057335480278599 -0.00066707509994307068 0.1294095225512602 0.72980303747702957
decision_type=2 2 2 2 2 2 2 2 2 2 2 2 2 2
left_child=1 -1 3 7 5 6 8 -3 -2 -5 -6 -4 -7 -13
right_child=4 2 11 9 10 12 -8 -9 -10 -11 -12 13 -14 -15
leaf_value=0.034025388208139253 -0.0048256032339728553 0.022854926857943797 0.0043304113110653551 -0.028433967392989493 0.017711230667983233 -0.019399574620691196 0.017809561043656677 -0.0079185818715237447 -0.033244168772485108 -0.0033037668333497209 -0.010838190113299282 0.03548206630490159 -0.040706957229894231 0.016611408736619933
leaf_weight=17.285719767212868 30.891669794917107 20.693500399589539 10.744525074958799 21.379761546850204 17.322406381368637 11.98844586312771 13.52302999794483 15.950471788644789 18.250615462660789 33.524388015270233 17.474175006151199 16.298965796828274 18.608813032507896 12.056988149881361
leaf_count=74 128 88 45 87 73 49 57 66 74 139 72 70 75 51
internal_value=-0.00123982 0.00842224 0.0042797 -0.00456306 -0.0124074 -0.0183263 -0.00876778 0.00964718 -0.0168578 -0.0142111 0.00341385 0.0240473 -0.035104 0.0301023
internal_weight=275.993 147.934 130.649 91.5481 128.059 93.2626 62.6653 36.644 49.1423 54.9041 34.7966 39.1005 30.5973 28.356
internal_count=1148 620 546 380 528 383 259 154 202 226 145 166 124 121
is_linear=0
shrinkage=0.03


Tree=4
num_leaves=17
num_cat=0
split_feature=14 13 13 8 20 20 8 7 11 23 17 14 16 16 15 21
split_gain=32.1715 44.0976 27.2964 20.0318 13.2492 17.4924 15.2872 10.5733 8.94229 6.88765 14.1805 8.35391 4.46168 3.55507 2.92754 0.810924
threshold=-0.37940952255126015 -0.25881904510252113 -0.70710678118654735 0.0049530937085837676 0.52962418369927688 0.67752075046767957 -0.0007855312430419813 -0.18916477003994156 -0.0027716017105969821 -1.0000000180025095e-35 -0.00046822915153839161 0.60355339059327384 -0.22252093395631442 -0.56174490092936669 1.0000000180025095e-35 0.016444047367131901
decision_type=2 2 2 2 2 2 2 2 2 2 2 2 2 2 2 2
left_child=1 2 -1 13 7 9 -7 -2 -4 10 -6 -11 -10 14 -3 -15
right_child=4 3 8 -5 5 6 -8 -9 12 11 -12 -13 -14 15 -16 -17
leaf_value=0.01926056997458361 -0.043550079237804185 0.040813916264357368 0 -0.0096565658955590963 0.033398479887559937 0.00035822107247348645 -0.035341156285427063 -0.004573333102349769 -0.037242419619609002 -0.02102594299857289 -0.0094134373825359666 0.0062326821324837686 -0.010449502039305433 0.0042110119827604717 0.019655562414731164 0.019021749963479891
leaf_weight=17.446696177124977 15.920466989278795 27.419198274612427 11.796468600630758 13.09251184761524 13.127490550279619 17.301631316542625 23.462239533662796 11.362042829394339 21.767690822482106 13.215703204274176 9.9506160914897901 23.691006571054459 12.635735869407656 9.7529852688312548 23.048400312662125 10.824030503630636
leaf_count=74 64 118 49 54 56 72 95 47 88 54 41 99 52 41 98 46
internal_value=-0.00120309 0.00822393 -0.0102593 0.022181 -0.0120923 -0.00652349 -0.0209975 -0.0296762 -0.0220847 0.00370137 0.0156347 -0.00414953 -0.0292699 0.0283232 0.0329643 0.0138126
internal_weight=275.815 147.784 63.6466 84.1371 128.031 100.749 40.7639 27.2825 46.1999 59.9848 23.0781 36.9067 34.4034 71.0446 50.4676 20.577
internal_count=1148 620 263 357 528 417 167 111 189 250 97 153 140 303 216 87
is_linear=0
shrinkage=0.03


Tree=5
num_leaves=12
num_cat=0
split_feature=14 10 13 7 12 8 14 9 13 0 9
split_gain=25.9574 15.4175 16.8802 30.0752 25.878 23.8205 14.2991 9.60389 8.81 7.33419 2.84507
threshold=-0.98296291314453399 -1.0000000180025095e-35 -0.37940952255126059 -0.52611009756695648 0.0026222286452524612 -0.0026194688057680766 0.25881904510252057 0.63999985920002611 -0.70710678118654735 1.3770061799028823 0.4224714728853039
decision_type=2 2 2 2 2 2 2 2 2 2 2
left_child=-1 6 4 10 5 -3 9 -5 -6 -2 -4
right_child=1 2 3 7 8 -7 -8 -9 -10 -11 -12
leaf_value=0.028733645723848619 0.011903414216270071 -0.021289397813710358 -0.029360961824621105 0.02143839216181757 -0.0063540947799579162 0.023943693732838046 -0.037918383605747633 -0.00069280418501372633 -0.031201176679704155 -0.016771977023595497 -0.0055681283370519604
leaf_weight=17.487931549549103 10.693053975701334 13.678066894412039 14.21377117931843 54.968497857451439 22.676059499382973 25.288048535585403 21.270243629813194 23.99572528898716 38.86904676258564 16.291527569293976 9.8870487213134748
leaf_count=75 45 56 58 233 94 107 86 100 158 67 41
internal_value=-0.00374391 -0.00634628 -0.00255295 0.00584433 -0.0111704 0.00746446 -0.0210878 0.0148241 -0.0229066 -0.0050547 -0.0216292
internal_weight=269.319 251.831 203.576 103.065 100.511 38.9661 48.2548 78.9642 61.5451 26.9846 24.1008
internal_count=1120 1045 847 432 415 163 198 333 252 112 99
is_linear=0
shrinkage=0.03


Tree=6
num_leaves=16
num_cat=0
split_feature=14 13 12 12 15 12 7 8 8 14 15 7 15 13 5
split_gain=25.0869 34.1829 33.533 22.4376 17.2157 13.9757 15.2667 13.726 12.23 8.6275 12.6482 7.18269 6.61108 5.08535 4.38663
threshold=-0.37940952255126015 -0.25881904510252113 0.0026222286452524612 0.0035079631565179408 0.70440582564969101 0.015870523479834649 -0.6174705179726504 0.0038508869290344587 -0.00098224268955970895 0.25881904510252057 1.0000000180025095e-35 -0.59943388086959282 -1.0000000180025095e-35 -0.37940952255126059 -0.0013438732544181662
decision_type=2 2 2 2 2 2 2 2 2 2 2 2 2 2 2
left_child=1 2 8 9 -4 6 -5 11 -1 10 -2 -3 -8 -11 -13
right_child=3 7 4 5 -6 -7 12 -9 -10 13 -12 14 -14 -15 -16
leaf_value=-0.0047747079544579471 -0.027877135594665287 0 -0.039156871034143115 -0.01401319861284917 0.00011219645128919466 -0.018663859437981427 0.037020512786243423 -0.0071890431310943073 0.032396172859429515 -0.01412150228932481 0.0076280349947809474 0.0057157286263494287 0.0037207360547281965 -0.041896749776217761 0.031540978028815753
leaf_weight=13.751569151878359 14.991730064153673 10.475684762001036 27.920149341225624 10.963162258267401 14.185633614659308 17.314511358737946 13.311481669545174 14.258922055363653 13.09035488963127 14.589027956128119 15.538753092288969 9.5091637521982175 10.0700813382864 24.53582538664341 44.627518609166145
leaf_count=57 61 44 113 45 59 71 57 59 56 60 65 40 42 99 192
internal_value=-0.00365776 0.00456915 -0.0105427 -0.0136228 -0.0265999 0.0012564 0.0122325 0.0177918 0.0144857 -0.024378 -0.0104724 0.0235122 0.0250739 -0.0334967 0.0277005
internal_weight=269.134 147.819 68.9477 121.315 42.1058 51.6592 34.3447 78.8713 26.8419 69.6553 30.5305 64.6124 23.3816 39.1249 54.1367
internal_count=1120 620 285 500 172 215 144 335 113 285 126 276 99 159 232
is_linear=0
shrinkage=0.03


Tree=7
num_leaves=15
num_cat=0
split_feature=15 13 15 10 15 12 7 11 13 12 19 7 13 19
split_gain=19.0077 20.7222 38.4799 39.6904 25.3605 19.1708 17.3247 15.5184 11.0332 10.0819 8.69765 4.89982 0.561384 0.321899
threshold=-0.70440582564969068 -0.37940952255126059 1.0000000180025095e-35 1.0000000180025095e-35 1.0000000180025095e-35 0.015870523479834649 -0.57007051077423265 -0.00013978908939865639 0.25881904510252091 -0.0065321726006156251 0.021237171988107307 -0.17499721821084968 0.78656609248549325 0.018972744763065114
decision_type=2 2 2 2 2 2 2 2 2 2 2 2 2 2
left_child=-1 2 9 7 5 12 -6 -4 -8 -2 -5 -7 -3 -11
right_child=1 4 3 10 6 11 8 -9 -10 13 -12 -13 -14 -15
leaf_value=-0.033374800740280666 -0.0025165842442154448 0.043445891237570505 0.043121678045973971 -0.021492941021235674 -0.02988680698066027 -0.011215165414138886 0.016181451855710998 -0.0013496807111263351 -0.008070126659783643 -0.046355247510491172 0.007882500002556669 0.01156064729956529 0.01954194384121706 -0.024304361175516077
leaf_weight=15.011652529239653 9.886912450194357 17.527658969163898 18.833723410964016 33.428036242723465 15.922612145543097 10.653479486703874 27.319847404956818 9.6086487919092161 34.868111744523048 17.658987641334534 9.8078022152185422 19.166146174073219 11.519717976450918 17.621798306703568
leaf_count=61 41 76 81 137 65 44 116 40 145 71 41 81 49 72
internal_value=-0.00356731 -0.00140012 -0.0105701 0.00312676 0.00641672 0.0208142 -0.00469135 0.0291164 0.00270017 -0.0313339 -0.0145556 0.00286807 0.0369636 -0.0383444
internal_weight=268.835 253.823 116.846 71.6782 136.978 58.867 78.1106 28.4424 62.188 45.1677 43.2358 29.8196 29.0474 35.2808
internal_count=1120 1059 483 299 576 250 326 121 261 184 178 125 125 143
is_linear=0
shrinkage=0.03


Tree=8
num_leaves=17
num_cat=0
split_feature=14 13 12 12 15 8 12 8 16 13 13 14 15 15 13 20
split_gain=23.4283 31.415 30.5828 20.3884 16.1204 13.213 13.0499 11.3442 8.88024 17.7423 8.82051 8.20549 11.5418 6.21425 4.7838 1.55038
threshold=-0.37940952255126015 -0.25881904510252113 0.0026222286452524612 0.0035079631565179408 0.70440582564969101 0.0038508869290344587 0.015870523479834649 -0.00098224268955970895 -0.56174490092936669 0.25881904510252091 -0.37940952255126059 0.25881904510252057 1.0000000180025095e-35 1.0000000180025095e-35 -0.37940952255126059 0.66885741128701626
decision_type=2 2 2 2 2 2 2 2 2 2 2 2 2 2 2 2
left_child=1 2 7 11 -4 8 10 -1 13 -10 -5 12 -2 -3 -13 -12
right_child=3 5 4 6 -6 -7 -8 -9 9 -11 15 14 -14 -15 -16 -17
leaf_value=-0.0046132567872204924 -0.02650023816580362 0.040658862019562751 -0.037544810903984809 -0.0055226341973412044 0.00039733472278141919 -0.0072847433331147786 -0.018153260449233374 0.03119731996096347 0.028836129830303234 -0.021250121968921398 0.03115231810523186 -0.013499926797356857 0.0074129166377222069 0.014659516250983882 -0.040412583164246445 0.0090779012379698463
leaf_weight=13.75077059864998 14.974494367837908 22.916427478194237 27.843327909708023 14.034016400575636 14.186111807823179 14.257360488176344 17.315472692251205 13.036480605602263 9.9384243488311785 9.4954555779695493 10.248793974518778 14.56594158709049 15.517399951815603 22.0286665558815 24.474122673273087 9.9859031140804273
leaf_count=57 61 100 113 58 59 59 71 56 43 39 44 60 65 94 99 42
internal_value=-0.00347763 0.004482 -0.0100138 -0.0131147 -0.0253651 0.0171797 0.00107633 0.0138992 0.0228143 0.00439354 0.0117134 -0.0233759 -0.00985493 0.0298183 -0.0322654 0.0232246
internal_weight=268.569 147.453 68.8167 121.116 42.0294 78.6363 51.5842 26.7873 64.379 19.4339 34.2687 69.532 30.4919 44.9451 39.0401 20.2347
internal_count=1120 620 285 500 172 335 215 113 276 82 144 285 126 194 159 86
is_linear=0
shrinkage=0.03


Tree=9
num_leaves=9
num_cat=0
split_feature=14 15 7 13 15 15 2 13
split_gain=22.3093 13.8465 10.4397 11.9768 23.434 19.6959 8.0485 2.70561
threshold=-0.98296291314453399 -0.70440582564969068 -0.72922325280756206 -0.37940952255126059 1.0000000180025095e-35 0.70440582564969101 85.632134300660923 -0.78656609248549303
decision_type=2 2 2 2 2 2 2 2
left_child=-1 -2 6 4 -4 -5 -3 -8
right_child=1 2 3 5 -6 -7 7 -9
leaf_value=0.026867030086929623 -0.031485149345626517 0.0014745477649899335 -0.027576974863464766 0.012832490595705901 0.0029700907296308391 -0.015614133029802 -0.010743533858111116 -0.035808706526321975
leaf_weight=17.297685965895653 14.724061414599417 12.182962775230406 33.737565875053406 82.853720843791962 56.282844841480255 26.395088940858841 11.615697324275969 13.068955287337305
leaf_count=75 60 51 138 351 235 109 48 53
internal_value=-0.00338196 -0.00579604 -0.00378169 -0.000916092 -0.00890165 0.00564583 -0.0178101 -0.0267814
internal_weight=268.159 250.861 236.137 199.269 90.0204 109.249 36.8676 24.6847
internal_count=1120 1045 985 833 373 460 152 101
is_linear=0
shrinkage=0.03


Tree=10
num_leaves=18
num_cat=0
split_feature=14 10 23 15 10 3 15 14 14 5 21 15 14 2 3 5 8
split_gain=29.1611 20.3412 29.6204 18.7066 13.9356 16.1254 15.9964 17.1452 15.0939 9.78667 7.84435 5.81267 4.80356 4.31113 3.23988 2.69289 1.32809
threshold=-0.37940952255126015 1.0000000180025095e-35 1.0000000180025095e-35 1.0000000180025095e-35 1.0000000180025095e-35 49.305315153242951 1.0000000180025095e-35 0.25881904510252057 0.91597561503675351 1.8260560753992874 -0.16505274559711056 1.0000000180025095e-35 1.0000000180025095e-35 0.096919350594330836 37.061240970692843 0.10269819999755746 0.00011530709113682926
decision_type=2 2 2 2 2 2 2 2 2 2 2 2 2 2 2 2 2
left_child=1 3 11 -1 6 -6 14 -8 12 13 -5 15 -7 -4 -2 -3 -9
right_child=4 2 9 10 5 8 7 16 -10 -11 -12 -13 -14 -15 -16 -17 -18
leaf_value=-0.007470934318703255 -0.013155562680847483 0.0091486612965190582 -0.006364973472858605 0.0052720479284186139 0.028200638660516086 -0.0043132158214879935 0.020110163245620878 -0.0087834125295411132 0.014513712557521806 0.0018481958683931328 0.034347666936438662 0.0022663517708839277 -0.030743957614608453 -0.033545510983039699 -0.041563732549590469 0.036532497394404506 -0.028111205669561441
leaf_weight=16.373967975378036 9.7307516634464246 9.3035441339015978 9.8258195072412473 13.075585976243017 10.303282871842383 12.090130463242533 11.808951258659361 11.853365227580072 13.25361694395542 14.093121871352194 37.147976636886597 16.831419259309769 16.21250119805336 22.519894480705261 23.678381934762001 9.9583452194929105 10.567836076021193
leaf_count=68 40 40 41 55 44 50 50 49 56 59 160 71 66 92 96 44 43
internal_value=-0.00177561 0.00697946 -0.00290202 0.0189518 -0.0126784 -0.000650642 -0.0213535 -0.00574967 -0.00942303 -0.0183282 0.0276708 0.0165989 -0.0212364 -0.0267844 -0.0353025 0.0267256 -0.0204896
internal_weight=268.628 149.13 82.5321 66.5975 119.499 51.8595 67.6393 34.2302 41.5562 46.4388 50.2236 36.0933 28.3026 32.3457 33.4091 19.2619 22.4212
internal_count=1124 630 347 283 494 216 278 142 172 192 215 155 116 133 136 84 92
is_linear=0
shrinkage=0.03


Tree=11
num_leaves=16
num_cat=0
split_feature=14 13 13 19 11 19 16 13 13 11 12 8 20 12 20
split_gain=27.7086 30.8603 28.0781 22.7928 16.0504 13.2026 7.90215 15.4369 11.8549 6.82439 6.43762 6.10682 3.7864 3.63355 0.331676
threshold=-0.37940952255126015 -0.25881904510252113 -0.70710678118654735 0.02339123901581577 0.0036677835509800753 0.013858076766123099 -0.56174490092936669 0.60355339059327384 -1.0000000180025095e-35 -0.00085749468864648726 0.0070200613482797715 0.00065057335480278599 0.4779628217185779 0.016590421441832506 0.57223901015820255
decision_type=2 2 2 2 2 2 2 2 2 2 2 2 2 2 2
left_child=1 2 14 9 12 6 7 8 -2 -4 -5 -7 -3 -14 -1
right_child=5 4 3 10 -6 11 -8 -9 -10 -11 -12 -13 13 -15 -16
leaf_value=0.010066190362206623 -0.0067838324270071502 0.0043408427674623308 -0.0087871563168874008 0.017818707297624324 -0.012761219621869062 0.013858956574760689 -0.031266774527862862 0.013116506819651777 -0.039912078759134342 -0.043718675156169971 -0.011349127763105647 -0.0095079912530896052 0.030684071499742623 0.0065989537467034971 0.026889419976472522
leaf_weight=10.147064313292505 28.186343193054199 9.6209811717271787 9.6382970809936541 11.575419023633005 9.8508110195398313 18.507012069225311 27.853700652718544 14.942642882466314 14.105911299586294 20.275196924805641 9.692811042070387 15.748009562492369 49.154475331306458 9.6031765639781934 9.3348111361265165
leaf_count=43 117 41 40 49 41 78 114 63 57 82 40 65 213 41 40
internal_value=-0.00173096 0.00680964 -0.00732975 -0.0188616 0.0194914 -0.0123655 -0.0185341 -0.0109397 -0.0199437 -0.0345638 0.00439516 0.00297433 0.0246049 0.0274052 0.0210399
internal_weight=268.237 148.893 70.6636 51.1817 78.2294 119.344 85.0886 57.2349 42.2923 29.9135 21.2682 34.255 68.3786 58.7577 19.4819
internal_count=1124 630 294 211 336 494 351 237 174 122 89 143 295 254 83
is_linear=0
shrinkage=0.03


Tree=12
num_leaves=16
num_cat=0
split_feature=14 13 13 19 8 19 2 18 15 13 21 4 17 21 23
split_gain=26.2773 29.2115 26.7956 21.7057 12.7745 12.5373 7.67659 7.62082 7.31548 10.2732 6.82409 7.65692 6.3122 6.27435 5.71201
threshold=-0.37940952255126015 -0.25881904510252113 -0.70710678118654735 0.02339123901581577 0.0029308155138184637 0.013858076766123099 1.4015257237627898 0.61567455119746606 1.0000000180025095e-35 -1.0000000180025095e-35 -0.37216128443022894 -0.0014033005061947488 -0.0013510950413545204 -0.15126964042232063 -1.0000000180025095e-35
decision_type=2 2 2 2 2 2 2 2 2 2 2 2 2 2 2
left_child=1 2 -1 12 10 6 14 -7 -8 -10 -3 -12 -4 -5 -2
right_child=5 4 3 13 -6 7 8 -9 9 -11 11 -13 -14 -15 -16
leaf_value=0.020596854581174807 0.0092911139703356713 0.00044659371673031172 -0.011411982856041693 -0.010985953897264355 -0.0029641037731009605 0.017271965438896614 -0.035388163007731524 -0.0089116026820649941 0.0065528120091213147 -0.026944707087749036 0.0027884081198123562 0.034511446889814036 -0.044246167112689395 0.017781713716366734 -0.014764062781786146
leaf_weight=19.451581731438637 12.115045025944712 9.3824093490838987 11.80736091732979 9.9273406863212603 17.262521639466286 15.151314839720724 26.909724950790405 19.094946384429932 13.368074163794519 14.195546895265577 9.484254524111746 41.896849140524864 18.031131908297539 11.328985661268232 18.38536436855793
leaf_count=83 51 40 49 41 72 64 110 79 56 58 40 184 73 48 76
internal_value=-0.00169428 0.00663323 -0.00712913 -0.0184076 0.0189906 -0.0120538 -0.0180715 0.00288908 -0.0246118 -0.0113557 0.025215 0.0292982 -0.033757 0.00427826 -0.0049641
internal_weight=267.792 148.572 70.5464 51.0948 78.026 119.22 84.9738 34.2463 54.4733 27.5636 60.7635 51.3811 29.8385 21.2563 30.5004
internal_count=1124 630 294 211 336 494 351 143 224 114 264 224 122 89 127
is_linear=0
shrinkage=0.03


Tree=13
num_leaves=18
num_cat=0
split_feature=14 13 13 19 11 10 17 15 13 14 14 21 7 11 12 12 14
split_gain=24.8806 27.7449 25.4866 20.6981 15.0909 12.7255 18.6266 15.2014 23.8031 14.8947 14.7997 7.85792 6.87587 6.39222 6.09925 5.22157 4.63016
threshold=-0.37940952255126015 -0.25881904510252113 -0.70710678118654735 0.02339123901581577 0.0036677835509800753 1.0000000180025095e-35 0.00088348665555474726 1.0000000180025095e-35 -0.37940952255126059 0.78656609248549303 0.91597561503675351 0.36698879410597912 -0.43230799797175606 -0.00085749468864648726 0.0070200613482797715 -0.0068625622899190896 1.0000000180025095e-35
decision_type=2 2 2 2 2 2 2 2 2 2 2 2 2 2 2 2 2
left_child=1 2 -1 13 11 7 -7 15 -9 -10 16 12 -3 -4 -5 -2 -8
right_child=5 4 3 14 -6 6 10 8 9 -11 -12 -13 -14 -15 -16 -17 -18
leaf_value=0.020096614746596832 -0.013289585225996263 0.0068056287725512341 -0.0081600776918864248 0.017254774209458888 -0.012681719713090579 0.02264334713172381 -0.0073898983278093558 0.028945908529650954 0.00074881097799242493 -0.042767119325027324 0.011474866771646424 0.0027117646141017054 0.034574167269513456 -0.04188094694453573 -0.011138680374531178 -0.043080852944434173 -0.037654705745325895
leaf_weight=19.412951245903969 13.028047218918799 13.034076020121573 9.6250758022069949 11.564130976796152 9.8461907655000669 17.40284675359726 10.422460466623308 9.8175764381885511 13.669522732496263 10.655332326889036 12.098752096295355 14.715931385755537 40.17823038995266 20.127033978700638 9.6853747665882093 20.136648938059807 11.862142086029051
leaf_count=83 54 56 40 49 41 74 43 42 57 43 51 63 176 82 40 82 48
internal_value=-0.00166086 0.00645501 -0.00696288 -0.0179736 0.018522 -0.0117437 -0.00026604 -0.0200585 -0.00491353 -0.0205863 -0.0129888 0.0235169 0.0286587 -0.0329934 0.00416513 -0.0337001 -0.0264121
internal_weight=267.282 148.189 70.4146 51.0016 77.7744 119.093 51.7862 67.3071 34.1424 24.3249 34.3834 67.9282 53.2123 29.7521 21.2495 33.1647 22.2846
internal_count=1124 630 294 211 336 494 216 278 142 100 142 295 232 122 89 136 91
is_linear=0
shrinkage=0.03


Tree=14
num_leaves=17
num_cat=0
split_feature=14 13 13 19 11 19 16 13 15 21 7 11 21 8 9 21
split_gain=23.6329 26.3301 24.2431 19.7364 14.3914 11.6101 7.49357 14.318 10.9496 7.47722 6.54177 6.09732 5.94565 5.67019 0.238757 0.0345992
threshold=-0.37940952255126015 -0.25881904510252113 -0.70710678118654735 0.02339123901581577 0.0036677835509800753 0.013858076766123099 -0.56174490092936669 0.60355339059327384 1.0000000180025095e-35 0.36698879410597912 -0.43230799797175606 -0.00085749468864648726 -0.15126964042232063 0.00065057335480278599 0.55748295339505927 -0.11182717423014747
decision_type=2 2 2 2 2 2 2 2 2 2 2 2 2 2 2 2
left_child=1 2 15 11 9 6 7 8 -2 10 -3 -4 -5 -7 -8 -1
right_child=5 4 3 12 -6 13 14 -9 -10 -11 -12 -13 -14 -15 -16 -17
leaf_value=0.0094752733242082585 -0.034868487123573592 0.006644963717846732 -0.0079756403608662405 -0.010785498453230923 -0.012380483704688652 0.013396576924197632 -0.034243278618620789 0.013172456937358133 -0.0041124178439944569 0.0026450390524700579 0.033784145012445969 -0.040970590577088538 0.017222593901764623 -0.0091264248828579145 -0.014399054596455402 0.024102803478555573
leaf_weight=9.4279438108205813 17.641837388277054 13.021471336483954 9.6216540187597293 9.9178781956434268 9.856032267212866 18.472822144627571 17.965537846088413 14.921837866306303 24.463802605867386 14.710319817066191 39.957723572850227 20.025202184915543 11.317163348197935 15.739402979612349 9.6559466123580915 9.9434974342584592
leaf_count=40 72 56 40 41 41 78 74 63 102 63 176 82 48 65 40 43
internal_value=-0.00163816 0.00628252 -0.00679882 -0.0175526 0.0180573 -0.0114732 -0.0172824 -0.00993908 -0.0186605 0.0229539 0.0279881 -0.0322549 0.00405417 0.00289256 -0.0296903 0.0196113
internal_weight=266.66 147.799 70.2533 50.8819 77.5455 118.861 84.649 57.0275 42.1056 67.6895 52.9792 29.6469 21.235 34.2122 27.6215 19.3714
internal_count=1124 630 294 211 336 494 351 237 174 295 232 122 89 143 114 83
is_linear=0
shrinkage=0.03


Tree=15
num_leaves=12
num_cat=0
split_feature=7 12 13 13 12 18 9 7 1 18 6
split_gain=13.0353 13.1244 12.2522 21.5935 15.0785 12.1548 6.67512 6.16194 5.46952 3.35087 0.309419
threshold=-0.71841997802467994 0.019136899471685089 0.91597561503675362 -0.37940952255126059 -0.0026624770406880687 0.66394102827349122 0.57157707153032711 0.055490160238930351 85.883384917952966 0.42608682329261843 1.4824241263787543
decision_type=2 2 2 2 2 2 2 2 2 2 2
left_child=8 2 3 5 -5 -2 7 -3 -1 -4 -10
right_child=1 6 9 4 -6 -7 -8 -9 10 -11 -12
leaf_value=-0.0017270696706741695 0.0029430246450460819 -0.017789945848479205 -0.0024555731904716549 -0.0037633051740138561 0.022710780538266442 -0.021663101280151913 -0.031236571195082989 0.011388835113835986 -0.032926411747331449 -0.026161125617655948 -0.014253133681738727
leaf_weight=14.972222477197645 57.068870052695274 10.080408543348318 11.906198695302011 24.126669064164162 73.799481049180031 22.770882710814476 11.685969591140745 9.8511785864829999 9.762427747249605 10.013761535286902 12.692088365554808
leaf_count=63 240 42 50 102 321 94 48 42 40 41 53
internal_value=-0.00140382 0.00129089 0.00422594 0.00692386 0.016181 -0.00449655 -0.0157457 -0.00337263 -0.0171402 -0.0154919 -0.025649
internal_weight=268.73 231.303 199.686 177.766 97.9262 79.8398 31.6176 19.9316 37.4267 21.92 22.4545
internal_count=1136 980 848 757 423 334 132 84 156 91 93
is_linear=0
shrinkage=0.03


Tree=16
num_leaves=12
num_cat=0
split_feature=15 13 15 12 15 11 7 23 7 15 4
split_gain=13.1782 15.224 37.975 29.8391 18.1787 17.2338 19.3926 13.9447 10.0515 8.34578 4.38181
threshold=-0.70440582564969068 -0.37940952255126059 1.0000000180025095e-35 0.0026222286452524612 0.70440582564969101 0.0045562014875398802 -0.55870541950598718 1.0000000180025095e-35 0.055490160238930351 1.0000000180025095e-35 -0.002275449694900455
decision_type=2 2 2 2 2 2 2 2 2 2 2
left_child=-1 2 8 10 -5 6 9 -8 -2 -3 -4
right_child=1 5 3 4 -6 -7 7 -9 -10 -11 -12
leaf_value=-0.024986721113007131 -0.037262671405837403 0.0065276083754325963 0.04188214476703974 -0.030809364191538298 0.0067270142375169002 -0.024898515745046021 0.008557792514267127 0.033409890134339829 -0.0038005214446418965 -0.02264389390968639 0.011438874215186344
leaf_weight=16.788707360625267 30.929206892848015 13.334353268146517 13.08927443623543 16.516561210155487 25.955432131886482 10.976022750139235 72.031486257910728 28.236574053764343 12.397965729236601 16.824901893734932 11.32076023519039
leaf_count=70 127 57 57 68 109 45 310 123 52 70 48
internal_value=-0.00140628 0.00040763 -0.00779668 0.00629858 -0.00874185 0.00689349 0.010136 0.0164108 -0.028748 -0.0100512 0.0308889
internal_weight=268.401 251.613 110.209 66.882 42.472 141.403 130.427 100.268 43.3272 30.1593 24.41
internal_count=1136 1066 461 282 177 605 560 433 179 127 105
is_linear=0
shrinkage=0.03


Tree=17
num_leaves=18
num_cat=0
split_feature=14 12 23 16 12 18 11 12 14 12 12 11 3 23 6 17 8
split_gain=19.1349 14.4747 18.6342 11.3568 10.4866 12.0669 9.18799 10.0155 8.70539 8.62022 7.10107 6.6538 5.89088 5.55912 3.50023 3.09651 2.09937
threshold=-0.37940952255126015 0.0099855659354580045 1.0000000180025095e-35 -0.22252093395631442 0.0035079631565179408 0.51848637969471933 -0.0003741842826759933 -0.0047494172487888417 0.60355339059327384 0.015039875418819066 0.00065984460931421511 -0.00081954037538428659 64.798176379001404 -1.0000000180025095e-35 0.1975945574279763 0.006886308521214175 -0.00098224268955970895
decision_type=2 2 2 2 2 2 2 2 2 2 2 2 2 2 2 2 2
left_child=1 3 15 10 5 6 7 -2 13 -10 14 -12 -4 -6 -1 -3 -5
right_child=4 2 12 16 8 -7 -8 -9 9 -11 11 -13 -14 -15 -16 -17 -18
leaf_value=0.0028861827242851385 -0.025180630689736958 0.020687957706640153 -0.029690235221754752 0.009410857976271083 0.0031706170259718689 -0.035401676745828912 0.014552125259514465 0.0071390146212808757 0.023797955169105413 -0.0066042040123393004 -0.01958807140937148 0.005156401126132912 -0.0035337001264970128 -0.02391491637606228 0.025931353371122252 0 0.03134516071842091
leaf_weight=12.897471845149996 23.471084088087078 14.333621144294741 18.992301493883133 10.258353203535078 9.7969717383384705 21.226807594299316 9.6721498221158964 10.620192587375643 15.565366849303247 12.781499862670897 12.30932357907295 23.774385049939156 14.699675649404524 13.199614942073822 11.930766820907591 9.5864837318658811 22.811043322086334
leaf_count=55 97 64 79 44 41 88 41 45 67 53 51 103 62 54 52 41 99
internal_value=-0.00137734 0.00556732 -0.00597884 0.0127041 -0.0104148 -0.0181436 -0.00784624 -0.0151066 -4.50131e-06 0.0104825 0.00438474 -0.00391009 -0.0197455 -0.0129955 0.0158852 0.013117 0.0261392
internal_weight=267.927 151.593 57.6121 93.9813 116.334 64.9902 43.7634 34.0913 51.3435 28.3469 60.9119 36.0837 33.692 22.9966 24.8282 23.9201 33.0694
internal_count=1136 650 246 404 486 271 183 142 215 120 261 154 141 95 107 105 143
is_linear=0
shrinkage=0.03


Tree=18
num_leaves=12
num_cat=0
split_feature=15 13 15 4 11 5 20 19 19 7 7
split_gain=12.2241 13.9793 35.0122 23.8401 16.2656 19.5413 20.1319 11.4541 10.9113 9.53638 7.94405
threshold=-0.70440582564969068 -0.37940952255126059 1.0000000180025095e-35 2.4296834421920491e-05 0.0045562014875398802 -4.8089010108940818e-05 0.51215518711377706 0.0074467990011691234 0.021568143821520353 0.055490160238930351 1.0000000180025095e-35
decision_type=2 2 2 2 2 2 2 2 2 2 2
left_child=-1 2 9 10 5 7 -7 -3 -5 -2 -4
right_child=1 4 3 8 -6 6 -8 -9 -10 -11 -12
leaf_value=-0.024107057810229572 -0.035964054613349554 -0.029349922503252954 0.034591058290201024 -0.018699031184630829 -0.024225268607130413 -0.0073870623286120315 0.024349784347722708 0.0035192672914248998 0.014716556199072422 -0.0033941220986508751 0.00070491866791990137
leaf_weight=16.686203390359879 30.731292739510536 11.656224459409712 20.022008344531063 27.721063479781151 10.985919088125227 21.596216946840286 72.012029901146889 24.718030229210854 9.4824976474046689 12.369131550192831 9.4642002433538419
leaf_count=70 127 48 87 115 45 92 315 105 40 52 40
internal_value=-0.00133506 0.000411875 -0.00746423 0.00607531 0.00663624 0.00979994 0.0169326 -0.00821887 -0.00949555 -0.0276414 0.0250612
internal_weight=267.445 250.759 109.79 66.6898 140.968 129.983 93.6082 36.3743 37.2036 43.1004 29.4862
internal_count=1136 1066 461 282 605 560 407 153 155 179 127
is_linear=0
shrinkage=0.03


Tree=19
num_leaves=12
num_cat=0
split_feature=17 5 13 20 19 20 13 12 19 12 0
split_gain=14.0259 14.3185 23.9836 21.7769 17.455 15.7015 12.6425 11.4016 9.46636 15.6339 7.34057
threshold=0.014004105076767682 -0.002145855969353897 -0.37940952255126059 0.51215518711377706 0.024576073670722353 0.49561684671652523 -0.78656609248549303 0.015459485784420759 0.01281642904451436 -0.0013895117836164612 2097.6789486814419
decision_type=2 2 2 2 2 2 2 2 2 2 2
left_child=1 8 4 5 6 -4 -3 -5 10 -10 -1
right_child=-2 2 3 7 -6 -7 -8 -9 9 -11 -12
leaf_value=-0.029021411724035721 -0.031927722021101133 0.00150039250324503 0.010548961934245959 0.02656875117790089 0.019927156035591313 -0.031308142466992726 -0.025820863723853383 0.0017765669052618868 0.01835085136133173 -0.020530974793255021 -0.00098375845393302349
leaf_weight=25.535616144537926 9.8374174088239652 23.294542491436005 14.316787093877794 63.424225747585297 12.715499207377432 12.289266794919966 36.622101247310638 23.972664251923561 17.983031466603283 13.692999780178068 13.184148252010344
leaf_count=106 40 98 62 280 54 51 153 102 77 57 56
internal_value=-0.00132042 0.000171254 0.00455751 0.01304 -0.00862675 -0.00969411 -0.0154907 0.0201525 -0.011046 0.000961267 -0.0204475
internal_weight=266.868 257.031 186.635 114.003 72.6321 26.6061 59.9166 87.3969 70.3958 31.676 38.7198
internal_count=1136 1096 800 495 305 113 251 382 296 134 162
is_linear=0
shrinkage=0.03


Tree=20
num_leaves=19
num_cat=0
split_feature=14 13 17 10 5 11 20 20 8 17 5 5 9 4 7 5 7 20
split_gain=22.0243 21.2613 13.6173 12.2345 10.419 10.2172 8.88824 15.6897 13.3686 5.05614 13.2625 5.29885 5.02866 4.33539 3.82922 3.61997 2.7284 0.955759
threshold=-0.37940952255126015 -0.25881904510252113 0.0055157567621527898 1.0000000180025095e-35 1.8260560753992874 0.0020545583268964944 0.53102270819230601 0.68271647619542308 -0.00082791252414898809 0.0020762218678763576 -4.8089010108940818e-05 0.10269819999755746 0.45419853134010907 -0.17066149741500422 -0.29821027928854676 -0.015104215732580974 -0.18916477003994156 0.53445019392755844
decision_type=2 2 2 2 2 2 2 2 2 2 2 2 2 2 2 2 2 2
left_child=1 3 15 13 14 -4 16 9 -9 10 -8 -11 -7 -1 -5 -3 -2 -17
right_child=6 2 5 4 -6 12 7 8 -10 11 -12 -13 -14 -15 -16 17 -18 -19
leaf_value=0.021083789637116469 -0.030424377183508353 0.0092831138043868843 -0.016177071918901605 -0.0059059810802017942 0.0077930998478341817 0.028604613329832954 -0.0015447866200643996 0.0029257164521223965 -0.033308790810029562 -0.01892185905356154 0.034451829670676601 0.0084613098419720686 0 -0.00047118576594856444 -0.032925131060841092 0.015430572094103839 -0.007368993531477218 0.037620236647074382
leaf_weight=12.326921150088312 16.600031897425655 11.657914236187933 12.422716304659845 9.5068071484565753 10.37372140586376 9.1184511035680789 22.258196532726288 13.786775991320608 19.979261294007301 9.6646108627319354 11.936643525958059 9.7193423807620984 10.374054744839666 16.563479378819466 16.291777774691582 10.36171644926071 10.82557739317417 24.956485599279404
leaf_count=53 69 50 53 40 44 40 94 58 83 40 52 41 44 70 68 46 45 114
internal_value=0.000465508 0.00823912 0.0184472 -0.00427393 -0.0154402 0.00256871 -0.00916985 -0.0040261 -0.0192378 0.00591318 0.0125441 -0.00549571 0.0154799 0.00956186 -0.0249335 0.0282531 -0.0232436 0.0330628
internal_weight=258.724 143.954 78.8913 65.0627 36.1723 31.9152 114.77 87.3448 33.766 53.5788 34.1948 19.384 19.4925 28.8904 25.7986 46.9761 27.4256 35.3182
internal_count=1104 622 347 275 152 137 482 368 141 227 146 81 84 123 108 210 114 160
is_linear=0
shrinkage=0.03


Tree=21
num_leaves=14
num_cat=0
split_feature=20 20 17 17 21 20 7 8 20 21 9 20 12
split_gain=9.24678 14.7672 12.1113 12.3281 8.89069 7.8355 7.45016 10.4614 5.93764 5.06303 3.0312 1.97687 1.8479
threshold=0.51215518711377706 0.67752075046767957 -0.0042830893467399643 0.0055157567621527898 0.15287664087865407 0.59051963913140681 -0.27314473268704204 0.0008654263135636776 0.64742063133672134 -0.50812902765484347 0.65977201376740069 0.4584228596870758 0.0067828821527084054
decision_type=2 2 2 2 2 2 2 2 2 2 2 2 2
left_child=4 2 5 8 10 -2 12 -8 -4 -5 11 -1 -3
right_child=1 6 3 9 -6 -7 7 -9 -10 -11 -12 -13 -14
leaf_value=-0.0078173717231628456 -0.019465704959380617 -0.026275421908156949 0.022576899708078083 -0.016826386713625133 0.0073812118618101418 0.0064885336448016352 0.019153569542767337 -0.017467032537110457 0.00092248125734411505 0.0051854688274752076 -0.0019164249644530124 -0.029484790875052284 -0.0076598817724392986
leaf_weight=9.8902166187763232 18.022978022694588 15.658055499196054 66.526640325784683 10.340583190321921 14.925506487488745 17.929081320762634 12.435174643993379 9.8126235753297788 14.994901642203329 28.441774547100067 9.4720713794231397 16.277395680546761 13.394612684845923
leaf_count=42 75 66 293 43 64 76 54 41 64 122 40 68 56
internal_value=0.0004584 0.00331714 0.00791452 0.0124397 -0.0106365 -0.00678855 -0.0101839 0.00248894 0.0188744 -0.00125492 -0.0184023 -0.0232504 -0.0194938
internal_weight=258.122 207.556 156.256 120.304 50.5652 35.9521 51.3005 22.2478 81.5215 38.7824 35.6397 26.1676 29.0527
internal_count=1104 890 673 522 214 151 217 95 357 165 150 110 122
is_linear=0
shrinkage=0.03


Tree=22
num_leaves=15
num_cat=0
split_feature=7 18 21 4 17 11 16 17 19 19 9 16 1 1
split_gain=7.20816 9.26717 9.97564 8.36359 5.94018 8.58549 4.88241 7.40758 6.39619 4.53916 4.40575 3.90944 4.53069 1.91553
threshold=-0.72922325280756206 0.71327883257689872 -0.35462629663793893 0.00010661246483083948 -0.0049528392660665495 -0.0027716017105969821 -0.56174490092936669 0.0039138058548265388 0.01603207362970353 0.027062697799655238 0.63999985920002611 -0.56174490092936669 86.514097323980266 85.972852833801269
decision_type=2 2 2 2 2 2 2 2 2 2 2 2 2 2
left_child=11 4 -3 -4 5 9 7 -6 -8 -2 -5 12 -1 -7
right_child=1 2 3 10 6 13 8 -9 -10 -11 -12 -13 -14 -15
leaf_value=-0.002251419048828353 0.023528392036108018 -0.023145789833355489 -0.019833121016004381 0.011879897468600933 0.020142287938411482 -0.0025103859805674067 -0.0067897467556294602 -0.004970861554410913 0.018582454383993269 -0.002221185758747587 -0.0059116218762752535 0.0033653620468122336 -0.027073634243390533 -0.021509004417703433
leaf_weight=13.229586258530619 9.3619651943445223 18.279596954584122 11.163861036300657 34.420312017202377 54.03973650932312 10.218272224068643 24.169042378664017 11.0377249866724 10.260482296347616 10.218825310468672 15.8308909535408 10.065141811966894 13.975693821907042 11.578176125884054
leaf_count=56 40 76 47 151 237 43 103 47 44 43 67 43 59 48
internal_value=0.000419555 0.00255214 -0.00543225 0.000532714 0.00715035 -0.00212382 0.0110439 0.0157193 0.00141443 0.0111819 0.00608866 -0.0112282 -0.0167233 -0.0143466
internal_weight=257.849 220.579 79.6947 61.4151 140.884 41.3772 99.507 65.0775 34.4295 19.5808 50.2512 37.2704 27.2053 21.7964
internal_count=1104 946 341 265 605 174 431 284 147 83 218 158 115 91
is_linear=0
shrinkage=0.03


Tree=23
num_leaves=14
num_cat=0
split_feature=20 20 17 17 21 20 7 8 20 21 16 12 12
split_gain=8.7365 13.8714 11.2667 11.371 8.42259 7.44003 6.9484 9.84198 5.58714 4.5702 3.21575 5.7091 1.70537
threshold=0.51215518711377706 0.67752075046767957 -0.0042830893467399643 0.0055157567621527898 0.15287664087865407 0.59051963913140681 -0.27314473268704204 0.0008654263135636776 0.64742063133672134 -0.50812902765484347 -0.56174490092936669 0.0024214570075497999 0.0067828821527084054
decision_type=2 2 2 2 2 2 2 2 2 2 2 2 2
left_child=4 2 5 8 10 -2 12 -8 -4 -5 11 -1 -3
right_child=1 6 3 9 -6 -7 7 -9 -10 -11 -12 -13 -14
leaf_value=0.0061283725903450706 -0.018920128307397824 -0.02550493217252698 0.021800785376134165 -0.015935743677657769 0.0071341904307196799 0.0063763398340140574 0.01851575583787048 -0.017019959365990846 0.00078901867207459341 0.0049714709095198678 -0.030530430190918455 -0.020176115394353419 -0.0074803121230248692
leaf_weight=10.27271845936775 17.992418855428696 15.562336266040804 66.283189252018929 10.352105334401129 14.915068253874777 17.91429229080677 12.407763451337816 9.808116137981413 14.983108684420584 28.421458572149277 10.797597855329515 14.513395756483076 13.386256486177443
leaf_count=44 75 66 293 43 64 76 54 41 64 122 45 61 56
internal_value=0.000387812 0.00317221 0.00763294 0.0120047 -0.0104012 -0.00654958 -0.00992741 0.00231175 0.0181996 -0.00113864 -0.0179677 -0.0094656 -0.0189368
internal_weight=257.61 207.111 155.947 120.04 50.4988 35.9067 51.1645 22.2159 81.2663 38.7736 35.5837 24.7861 28.9486
internal_count=1104 890 673 522 214 151 217 95 357 165 150 105 122
is_linear=0
shrinkage=0.03


Tree=24
num_leaves=15
num_cat=0
split_feature=14 13 17 15 13 19 8 16 7 13 11 12 12 5
split_gain=19.9797 19.9645 12.1657 13.2222 12.0043 14.4618 10.9303 6.89732 11.5971 8.30998 8.12518 6.58407 11.792 3.33343
threshold=-0.37940952255126015 -0.25881904510252113 0.0055157567621527898 1.0000000180025095e-35 -0.70710678118654735 0.015176804171400918 -0.0011911298770757581 -0.56174490092936669 -0.8085175800642449 -0.60355339059327362 -0.00013978908939865639 0.014632438316509639 -0.0013895117836164612 -0.015104215732580974
decision_type=2 2 2 2 2 2 2 2 2 2 2 2 2 2
left_child=1 4 13 -4 -1 -6 -7 8 -2 -9 -11 12 -10 -3
right_child=7 2 3 -5 5 6 -8 9 11 10 -12 -13 -14 -15
leaf_value=0.015415566245997254 -0.025691154648997072 0.0088523976091356461 0.020630270976740497 -0.01476688783428475 -0.036521176708388559 -0.019868484321210307 0.011357671380277557 0.0027716358619879096 -0.0060616295656335589 -0.0037902771236061924 -0.03924006601500428 -0.013259762337329211 0.021787333968825318 0.031782045307927456
leaf_weight=16.975757122039795 13.754208862781523 11.609463587403296 15.740459799766542 16.16904079914093 12.213199838995932 13.964776650071142 21.779169768095016 10.03553920984268 25.431919142603871 10.317298591136932 15.795167580246925 15.257975831627844 23.544144630432132 34.704267784953117
leaf_count=73 58 50 69 68 51 58 93 42 107 44 66 63 102 160
internal_value=0.00035147 0.0077787 0.0177314 0.00270854 -0.00433217 -0.0119951 -0.00120356 -0.00884798 -0.00340233 -0.0192058 -0.0273766 0.00216982 0.00763779 0.027105
internal_weight=257.292 143.156 78.2232 31.9095 64.9329 47.9571 35.7439 114.136 77.9882 36.148 26.1125 64.234 48.9761 46.3137
internal_count=1104 622 347 137 275 202 151 482 330 152 110 272 209 210
is_linear=0
shrinkage=0.03


Tree=25
num_leaves=13
num_cat=0
split_feature=5 12 15 20 20 20 11 20 8 8 12 9
split_gain=11.8397 13.521 13.1976 11.8595 14.1777 13.0179 9.35418 6.9235 6.64388 4.33586 3.67207 1.34036
threshold=-0.00032555286690498687 0.019136899471685089 1.0000000180025095e-35 0.51215518711377706 0.48767585531765772 0.69258307087056281 -0.001289938837698734 0.56029703216363524 0.00030228276709565188 0.0020027934961679432 0.014632438316509639 0.32841268110905991
decision_type=2 2 2 2 2 2 2 2 2 2 2 2
left_child=2 3 11 4 -2 10 -4 -3 -8 -9 -5 -1
right_child=1 7 6 5 -6 -7 8 9 -10 -11 -12 -13
leaf_value=-0.0098623615957686376 0.010123953173155604 0.0060438316343934114 0.016702808921204602 0.017819420975126028 -0.027552032836697878 -0.010629787698370115 -0.021672045235389074 -0.0056570442540490578 0.0044678890222179662 -0.032286547799002564 0.0017002717016097251 -0.027214893787813072
leaf_weight=12.691565424203871 15.238467112183573 10.062674507498739 16.944536194205284 85.061891108751297 14.92906494438648 18.190770223736763 15.083678901195528 12.709510728716852 14.429028958082197 11.95578722655773 17.132983848452568 25.206566751003265
leaf_count=54 66 43 73 374 63 77 63 54 62 49 74 105
internal_value=-0.00120029 0.00301178 -0.0103406 0.0069608 -0.00905514 0.0111698 0.000385999 -0.0130617 -0.00938216 -0.0209916 0.0153282 -0.0227735
internal_weight=269.637 185.281 84.3554 150.553 30.1675 120.386 46.4572 34.728 29.5127 24.6653 102.195 37.8981
internal_count=1157 800 357 654 129 525 198 146 125 103 448 159
is_linear=0
shrinkage=0.03


Tree=26
num_leaves=11
num_cat=0
split_feature=14 21 1 5 12 0 11 5 14 3
split_gain=17.0342 11.618 9.90961 7.99823 11.3624 8.16341 7.95858 5.48104 5.00956 2.12597
threshold=-0.9159756150367534 -0.41402889397563053 0.092864426227223185 0.080904308233354191 0.019136899471685089 2053.8782233377547 0.00014559759270893482 6.0515772982675622e-05 0.1294095225512602 56.795173350284735
decision_type=2 2 2 2 2 2 2 2 2 2
left_child=1 -1 -2 6 5 -5 8 -8 -4 -3
right_child=2 9 3 4 -6 -7 7 -9 -10 -11
leaf_value=-0.0079600613379768332 0.021359213210020697 0.0099656973607156196 -0.010547840741185859 0.018097569619012564 -0.019882601509909753 -0.0038393133641468021 -0.033616161920174095 -0.010522547676870516 0.0033000010385062389 0.027993119946598932
leaf_weight=14.301027700304983 9.1525206565856916 16.806201159954071 55.588346898555756 29.475981116294861 13.96694131195545 26.135159656405449 16.366357252001762 29.456474959850311 36.059891492128372 21.984695672988892
leaf_count=61 40 75 235 129 58 113 68 125 154 99
internal_value=-0.00119161 0.0135325 -0.00498414 -0.00647991 0.0016607 0.00796568 -0.0106117 -0.0205139 -0.00507229 0.0216742
internal_weight=269.294 53.0919 216.202 207.049 69.5781 55.6111 137.471 45.8228 91.6482 38.7909
internal_count=1157 235 922 882 300 242 582 193 389 174
is_linear=0
shrinkage=0.03


Tree=27
num_leaves=9
num_cat=0
split_feature=14 15 17 15 19 19 13 13
split_gain=16.1786 11.5019 9.87212 9.02823 14.3392 11.0232 18.0871 4.55623
threshold=-0.9159756150367534 1.0000000180025095e-35 0.004436951917112162 -0.70440582564969068 0.0049174161352142946 0.011292019565605821 0.60355339059327384 0.78656609248549325
decision_type=2 2 2 2 2 2 2 2
left_child=1 -1 -3 -2 -5 6 -6 -7
right_child=3 2 -4 4 5 7 -8 -9
leaf_value=0.029770151544199378 -0.025815201384871683 0.016706503301230715 -0.013313859462580346 0.026640197691392167 -0.025270597822161522 0.0026386301647524611 0.0047981711845037963 -0.01507127232362435
leaf_weight=19.595965087413788 14.211938738822935 16.657862097024918 16.682097107172012 10.711799860000609 44.716997995972633 107.74130372703075 26.867188557982445 11.789244174957274
leaf_count=90 60 75 70 47 188 459 118 50
internal_value=-0.00115896 0.0132125 0.00157869 -0.00485422 -0.0029778 -0.00507028 -0.0141254 0.000492225
internal_weight=268.974 52.9359 33.34 216.038 201.827 191.115 71.5842 119.531
internal_count=1157 235 145 922 862 815 306 509
is_linear=0
shrinkage=0.03


Tree=28
num_leaves=15
num_cat=0
split_feature=5 12 15 13 12 20 20 13 17 20 17 12 8 13
split_gain=10.6133 12.7395 12.448 21.7825 17.7783 11.2698 13.3948 12.9936 8.71775 6.41127 6.36866 5.69291 4.11339 2.52174
threshold=-0.00032555286690498687 0.019136899471685089 1.0000000180025095e-35 0.12940952255126045 -0.00047580334762338078 0.51215518711377706 0.49992011914572337 -0.37940952255126059 -0.00026117128770829413 0.56029703216363524 -0.014640933072473833 0.013594197221116827 0.0020027934961679432 1.0000000180025095e-35
decision_type=2 2 2 2 2 2 2 2 2 2 2 2 2 2
left_child=2 5 10 4 -4 6 -2 8 -7 -3 -1 -9 -11 -12
right_child=1 9 3 -5 -6 7 -8 11 -10 12 13 -13 -14 -15
leaf_value=0 0.0071086695211143242 0.0056618973431832569 0.032104067033495678 -0.026236345501160184 -0.0099269977628529734 0.016241619461116193 -0.030095538037963297 0.023987116616098057 -0.0087555876759386649 -0.0054289419171339968 -0.036664709796275181 0.0031764393267842365 -0.031410756694600611 -0.012476154560389439
leaf_weight=9.556387245655058 17.968482077121738 10.030433133244513 18.118897050619125 14.772687509655951 13.467625081539156 15.566410422325133 12.045145183801649 50.882557019591331 35.645938754081726 12.662681221961977 15.690222918987276 17.803626075387001 11.906477943062781 12.474939927458761
leaf_count=40 78 43 80 61 57 67 51 230 150 54 66 78 49 53
internal_value=-0.00112329 0.00287202 -0.00979108 0.000612612 0.0146163 0.00671638 -0.00892764 0.010828 -0.000513155 -0.0127522 -0.0219012 0.0190772 -0.0203944 -0.0284722
internal_weight=268.593 184.512 84.0808 46.3592 31.5865 149.912 30.0136 119.899 51.2123 34.5996 37.7216 68.6862 24.5692 28.1652
internal_count=1157 800 357 198 137 654 129 525 217 146 159 308 103 119
is_linear=0
shrinkage=0.03


Tree=29
num_leaves=15
num_cat=0
split_feature=2 5 17 20 20 21 20 21 15 6 11 20 18 15
split_gain=10.2529 9.91792 11.6308 6.82553 11.2735 5.59634 6.82205 8.55739 6.43571 7.22749 5.45394 4.06059 2.7851 2.75272
threshold=0.092804067490136574 0.080904308233354191 0.0089538852695717468 0.56029703216363524 0.66667303138909373 0.0084883941103711686 0.63377943314825858 -0.43532537226744089 1.0000000180025095e-35 0.0061970968641491602 -0.00095084778815779359 0.49992011914572337 0.48240915902180831 1.0000000180025095e-35
decision_type=2 2 2 2 2 2 2 2 2 2 2 2 2 2
left_child=-1 5 3 11 -5 6 7 -2 9 -7 -10 -3 -8 -4
right_child=1 2 13 4 -6 8 12 -9 10 -11 -12 -13 -14 -15
leaf_value=0.024297934436027357 -0.000452001860164431 0.012544676122669858 -0.00076850156351187507 0.02720214035596074 -0.0031539714035181883 0.00035452031378202276 0.0080455520676669424 -0.025688678777435848 0.01815864024309843 -0.025683113777160104 -0.0023891509738302669 -0.0092130310176647256 -0.0086710541009212081 -0.021764882608198487
leaf_weight=10.533512338995932 18.432095810770988 9.3318465799093264 11.534221097826958 30.942240864038467 14.712491348385809 23.112400874495506 14.925285190343859 37.565203562378883 17.766161605715752 12.554715469479559 23.59661066532135 17.429924681782722 14.907278746366499 10.64327934384346
leaf_count=47 78 41 49 140 63 100 64 158 77 53 102 77 64 44
internal_value=-0.00111764 -0.00245995 0.00511097 0.0109381 0.0176434 -0.00692455 -0.0120659 -0.0179797 -0.000845862 -0.00985944 0.00686481 -0.00082396 -6.26259e-05 -0.0125951
internal_weight=267.987 257.454 94.594 72.4165 45.6547 162.86 85.8299 55.9973 77.0299 35.6671 41.3628 26.7618 29.8326 22.1775
internal_count=1157 1110 414 321 203 696 364 236 332 153 179 118 128 93
is_linear=0
shrinkage=0.03


Tree=30
num_leaves=15
num_cat=0
split_feature=14 19 19 10 14 14 16 0 6 12 19 16 5 19
split_gain=23.0429 12.1803 10.6751 9.23009 13.144 9.40823 7.89413 6.11879 4.11323 3.39786 3.30229 3.98719 1.73805 1.42925
threshold=-0.37940952255126015 0.030936186056631423 0.021568143821520353 1.0000000180025095e-35 -0.70710678118654757 -0.9159756150367534 -0.22252093395631442 0.096323624495172108 0.22236167688175121 -0.0031220300424196312 0.012208585435123267 -0.56174490092936669 0.0014205376361794135 0.01001729505546789
decision_type=2 2 2 2 2 2 2 2 2 2 2 2 2 2
left_child=1 3 7 6 5 -5 8 9 -1 -2 11 -9 -12 -8
right_child=2 -3 -4 4 -6 -7 13 10 -10 -11 12 -13 -14 -15
leaf_value=-0.0023078331197298376 -0.010763393910350725 -0.017910505200175033 0.011322598961846649 0.007536161719557748 0.028748445466401897 -0.014747339366355645 0.012545275364414264 -0.015087515102480516 0.016493322494320468 0.011274406384815749 -0.014390702448651059 -0.035177703179226999 0 0.037239602769157852
leaf_weight=18.092994913458824 9.6670116037130374 14.047025144100187 13.273290082812307 30.062990322709076 10.286906674504278 32.00586216151715 8.9733277857303637 39.956050395965576 18.104990378022194 9.513264521956442 12.852056697010996 16.616079688072205 12.847059696912764 13.869025528430937
leaf_count=78 41 59 56 134 47 136 40 170 80 41 54 71 55 63
internal_value=-0.00180432 0.00603867 -0.0117243 0.00900859 0.0015248 -0.00396619 0.0175179 -0.0150644 0.00740886 0 -0.0185084 -0.0226137 -0.00773842 0.0304695
internal_weight=260.168 145.443 114.725 131.396 72.3558 62.0689 59.0403 101.452 36.198 19.1803 82.2712 56.5721 25.6991 22.8424
internal_count=1125 637 488 578 317 270 261 432 158 82 350 241 109 103
is_linear=0
shrinkage=0.03


Tree=31
num_leaves=10
num_cat=0
split_feature=1 15 21 20 20 12 17 9 4
split_gain=11.8182 8.99745 6.98201 9.88424 8.5231 6.61088 5.03628 3.58216 3.22187
threshold=0.092864426227223185 -0.70440582564969068 -0.040293127772995756 0.51215518711377706 0.68870513874267336 0.022278495794629403 -0.0049528392660665495 0.52151008365192586 2.4296834421920491e-05
decision_type=2 2 2 2 2 2 2 2 2
left_child=-1 -2 3 7 6 -5 -4 -3 -6
right_child=1 2 4 5 8 -7 -8 -9 -10
leaf_value=0.023099415917264707 -0.022605755734688371 -0.032674110359391065 -0.0050787243605528885 0.0013535848085243806 0 -0.021745657909567201 0.010287676748435977 -0.006067906406682126 -0.022037916420980658
leaf_weight=13.130375325679777 17.203317210078239 12.846421614289286 22.080778077244759 73.799591600894928 9.1609451323747653 9.9837956428527814 80.037418648600578 10.065491437911986 11.303078949451445
leaf_count=59 74 54 94 318 40 41 354 43 48
internal_value=-0.00174711 -0.00336864 -0.00161316 -0.00715103 0.00319101 -0.00195183 0.0068293 -0.0233888 -0.0131329
internal_weight=259.611 246.481 229.278 106.695 122.582 83.7834 102.118 22.9119 20.464
internal_count=1125 1066 992 456 536 359 448 97 88
is_linear=0
shrinkage=0.03


Tree=32
num_leaves=11
num_cat=0
split_feature=2 20 4 21 20 21 8 5 20 19
split_gain=15.625 7.04604 8.94629 12.5761 9.90139 9.11494 7.45515 6.0151 5.07443 3.94222
threshold=0.092971215092836776 0.68870513874267336 0.00060863924480025766 -1.1958062258490487 0.59379484204575406 0.14302022305616549 0.00094734817376873625 -0.002145855969353897 0.50365901616811948 0.01104550726867898
decision_type=2 2 2 2 2 2 2 2 2 2
left_child=-1 2 4 -4 5 -2 9 -6 -5 -3
right_child=1 6 3 8 7 -7 -8 -9 -10 -11
leaf_value=0.026286136096505226 -0.019741970356451803 -0.011656728118801994 -0.019168531361446691 -0.0032669843731217068 -0.0066792714227028472 0.0033485688138653311 -0.028477837145306703 0.01444163337291441 0.014384804789397221 0.0096438342267144792
leaf_weight=13.749453738331793 51.477007493376732 16.291703388094906 12.372409731149672 16.803007915616035 20.210004538297653 19.493781551718712 16.433927625417709 22.223888784646988 60.325104534626007 9.983198404312132
leaf_count=62 219 70 52 73 86 84 70 97 269 43
internal_value=-0.0017235 -0.00362595 -0.00116246 0.00576815 -0.0067172 -0.0133994 -0.0142884 0.00440746 0.0104486 -0.0030972
internal_weight=259.363 245.614 202.905 89.5005 113.405 70.9708 42.7088 42.4339 77.1281 26.2749
internal_count=1125 1063 880 394 486 303 183 183 342 113
is_linear=0
shrinkage=0.03


Tree=33
num_leaves=13
num_cat=0
split_feature=14 19 19 10 15 12 15 9 0 9 21 10
split_gain=21.238 11.4316 10.2028 9.02217 17.1598 8.17864 7.80863 7.53182 6.09897 5.92617 5.32371 1.61661
threshold=-0.37940952255126015 0.030936186056631423 0.021568143821520353 1.0000000180025095e-35 1.0000000180025095e-35 0.010979722664211504 1.0000000180025095e-35 0.83333331937496002 0.096323624495172108 0.60813255431955382 -0.075642931088204177 1.0000000180025095e-35
decision_type=2 2 2 2 2 2 2 2 2 2 2 2
left_child=1 3 7 6 9 -6 -1 8 -2 -5 -8 -10
right_child=2 -3 -4 4 5 -7 10 -9 11 -11 -12 -13
leaf_value=-0.00090204283484698227 -0.00075990840254847578 -0.017347032960624672 0.011281576891381795 0.023084210241366112 -0.00056311917013307945 -0.028377090314225219 0.007255966219848419 0.0075047531196286849 -0.025554535815150697 -0.0030876178077630418 0.031021895410535544 -0.012938434637350983
leaf_weight=15.005775913596151 17.734950542449951 14.02624863386154 13.256100013852118 25.019130483269691 24.567512303590775 13.416056409478186 16.590444892644882 10.281439378857611 41.570577934384346 9.1001408696174604 27.133143693208694 31.335519537329674
leaf_count=64 76 59 56 115 106 56 72 44 179 40 125 133
internal_value=-0.00168107 0.00585975 -0.01123 0.00874803 0.00134582 -0.0119649 0.017183 -0.0145138 -0.0172679 0.0161759 0.0232417 -0.0209763
internal_weight=259.037 144.858 114.179 130.832 72.1028 37.9836 58.7294 100.922 90.641 34.1193 43.7236 72.9061
internal_count=1125 637 488 578 317 162 261 432 388 155 197 312
is_linear=0
shrinkage=0.03


Tree=34
num_leaves=16
num_cat=0
split_feature=14 6 21 12 16 10 17 18 14 10 12 11 8 9 2
split_gain=20.0652 10.4153 14.3147 10.3635 9.28719 8.45695 10.8239 6.69683 6.69072 6.49459 4.14059 6.91138 1.20671 1.11545 0.34168
threshold=-0.37940952255126015 0.00040066963860216283 -0.075642931088204177 0.010979722664211504 -0.22252093395631442 1.0000000180025095e-35 -0.00014006421876927271 0.22640791940890401 -0.98296291314453399 1.0000000180025095e-35 0.020214198110170743 0.0011785372209789371 -0.0019279931035257045 0.59411707724459706 1.3827216458514033
decision_type=2 2 2 2 2 2 2 2 2 2 2 2 2 2 2
left_child=1 -1 3 4 -3 7 -7 12 -4 -10 11 -8 -2 14 -9
right_child=5 2 8 -5 -6 6 10 13 9 -11 -12 -13 -14 -15 -16
leaf_value=0.026610952068651005 -0.0090113086296174563 -0.010814001605294773 0.029117041164055623 -0.028101691568375151 0.016898977244706476 0.020174667715772782 -0.015938190060866188 -0.013433944850124771 0.015976884918273645 -0.0026532893635725784 -0.022513446055224533 0.010130742138391352 0.004023155434943429 -0.011218121835853514 -0.032981558413910178
leaf_weight=15.829279333353041 9.6798316538333911 25.806332081556317 12.241162478923796 14.423260927200316 14.476897627115251 11.892381638288496 14.613392382860185 9.373469144105913 28.214510753750801 33.570014029741287 11.648710533976553 15.889990642666815 9.2731985598802549 12.141438424587248 19.457753032445908
leaf_count=72 41 111 58 61 63 52 62 40 125 147 48 68 40 52 85
internal_value=-0.00163892 0.00569749 0.00251013 -0.00876493 -0.000165654 -0.0109289 -0.00192306 -0.018429 0.0109763 0.00606132 -0.00928305 -0.00239844 -0.00254566 -0.0248967 -0.0287741
internal_weight=258.532 144.561 128.732 54.7065 40.2832 113.97 54.0445 59.9257 74.0257 61.7845 42.1521 30.5034 18.953 40.9727 28.8312
internal_count=1125 637 565 235 174 488 230 258 330 272 178 130 81 177 125
is_linear=0
shrinkage=0.03


Tree=35
num_leaves=12
num_cat=0
split_feature=14 2 6 1 12 6 2 7 2 12 12
split_gain=10.4962 8.6999 11.2124 9.30311 7.4226 5.19313 7.62458 4.71727 3.81964 2.89027 0.187549
threshold=-0.98296291314453399 1.3818280660319606 0.22236167688175121 2048.4368750664948 0.0004044862472283712 0.00066069260153520852 0.096248889888220682 -0.24258524828213596 0.093686358750483853 0.0057919651416735969 -0.0056184170090748794
decision_type=2 2 2 2 2 2 2 2 2 2 2
left_child=-1 5 9 4 -4 6 8 -5 -2 10 -3
right_child=1 2 3 7 -6 -7 -8 -9 -10 -11 -12
leaf_value=0.021066658595004294 0 -0.011961610472275262 0.019617320968150789 -0.017151547135153176 -0.00063642522735848754 0.021311740440208327 -0.018765526243371914 -0.00097673003548887755 0.017956802223322282 -0.0049188052243228858 -0.029288525786317493
leaf_weight=15.435481518507002 26.392139688134193 9.5891262888908368 20.572634235024452 32.875871524214745 49.540827363729477 13.635093778371809 9.6794854104518873 32.623698160052299 15.573171287775038 12.035730883479117 16.239463895559314
leaf_count=73 115 41 91 142 214 60 41 142 68 52 69
internal_value=-0.00071352 -0.00240277 -0.00592239 -0.00166022 0.00574441 0.00666787 0.00167918 -0.00962227 0.00753238 -0.0197248 -0.0250821
internal_weight=254.193 238.757 173.477 135.613 70.1135 65.2799 51.6448 65.4996 41.9653 37.8643 25.8286
internal_count=1108 1035 751 589 305 284 224 284 183 162 110
is_linear=0
shrinkage=0.03


Tree=36
num_leaves=12
num_cat=0
split_feature=20 20 19 11 15 13 14 4 20 7 11
split_gain=13.1586 11.4835 8.69822 8.6552 8.2085 9.72679 14.6952 13.6741 7.83533 3.57188 2.84576
threshold=0.68870513874267336 0.51215518711377706 0.01494515791504168 -4.6636275301270562e-05 -0.70440582564969068 -0.37940952255126059 -0.60355339059327384 -0.022209021580160023 0.4779628217185779 0.12432792135923602 -0.00046051871004298967
decision_type=2 2 2 2 2 2 2 2 2 2 2
left_child=1 3 10 9 -3 6 -6 -7 -5 -1 -2
right_child=2 4 -4 8 5 7 -8 -9 -10 -11 -12
leaf_value=0.016596002909749285 -0.0075518767446610367 -0.015085934654745356 0.0044344216911698523 -0.001402341011176882 -0.013842025638595443 -0.010581876963299356 0.012525486911637363 0.020592994085470273 -0.031877795029153208 -0.0060022122203517263 -0.030413439631908165
leaf_weight=9.1138135492801684 11.1777450889349 11.878510549664496 12.396838828921316 14.209646359086038 33.130630284547806 13.078191608190535 37.175246685743332 67.104432389140129 15.989283964037893 9.9813906848430616 18.659509941935539
leaf_count=40 48 52 53 61 140 56 160 306 69 43 80
internal_value=-0.000695689 0.00237497 -0.0154205 -0.00985477 0.00625373 0.0082587 0 0.0152018 -0.0192317 0.00516509 -0.0235954
internal_weight=253.895 211.661 42.2341 49.2941 162.367 150.489 70.3059 80.1826 30.1989 19.0952 29.8373
internal_count=1108 927 181 213 714 662 300 362 130 83 128
is_linear=0
shrinkage=0.03


Tree=37
num_leaves=13
num_cat=0
split_feature=20 20 19 3 6 4 0 20 17 3 19 21
split_gain=12.477 10.8812 8.3049 8.14444 7.89331 7.53535 8.00021 6.13986 5.66182 2.81447 2.45532 1.45746
threshold=0.68870513874267336 0.51215518711377706 0.01494515791504168 50.050131157307682 0.00034522463546595962 0.14560767481259521 2049.5462885242009 0.49992011914572337 0.004747698739788646 51.030945490993119 0.012044711939579752 -0.11952660338726477
decision_type=2 2 2 2 2 2 2 2 2 2 2 2
left_child=1 3 9 10 -3 8 -7 11 -6 -2 -1 -5
right_child=2 4 -4 7 5 6 -8 -9 -10 -11 -12 -13
leaf_value=-0.0053173783900353818 -0.010934493355063685 0.023477331272039666 0.0043266678160270924 -0.013707814044532619 0.0019986502072196414 0.026308706077466076 0.0014046251665290777 -0.035735507407816579 -0.016095264772945973 -0.033177989278750264 0.013140072197124561 0.00062632697386543173
leaf_weight=9.21302577853203 16.778344959020618 17.786305412650108 12.39908818900585 9.5060804784297961 82.298023596405983 19.39518840610981 26.562343209981918 9.6597097963094694 15.956273689866064 12.975037559866903 10.564196288585661 10.259967356920244
leaf_count=40 73 80 53 40 360 87 119 42 68 55 46 45
internal_value=-0.000701371 0.00229159 -0.0150525 -0.00962079 0.00607337 0.00343102 0.0130667 -0.0189827 -0.00124069 -0.0230598 0.00457884 -0.00676999
internal_weight=253.354 211.201 42.1525 49.203 161.998 144.212 45.9575 29.4258 98.2543 29.7534 19.7772 19.766
internal_count=1108 927 181 213 714 634 206 127 428 128 86 85
is_linear=0
shrinkage=0.03


Tree=38
num_leaves=13
num_cat=0
split_feature=20 20 12 4 13 13 11 19 11 20 11 19
split_gain=11.8721 10.3797 8.50261 11.9214 18.5773 8.86427 7.98413 7.94066 7.576 7.34482 2.65526 2.61457
threshold=0.68870513874267336 0.51215518711377706 0.017054974765754936 -0.022209021580160023 -0.60355339059327362 -0.70710678118654735 -4.6636275301270562e-05 0.01494515791504168 0.0029205366140152571 0.4779628217185779 -0.00046051871004298967 0.01235216115092894
decision_type=2 2 2 2 2 2 2 2 2 2 2 2
left_child=1 6 3 5 -5 -3 11 10 -4 -8 -2 -1
right_child=7 2 8 4 -6 -7 9 -9 -10 -11 -12 -13
leaf_value=-0.0051946224748298242 -0.0070939216076178193 0.013440211280097314 -0.025922499642223464 -0.0048398636351552364 0.022700361151318758 -0.014529161852432936 -0.0012382298027878971 0.0042215742478904934 0.0042138623904769889 -0.030786605249033323 -0.029161259927774963 0.014119911069315037
leaf_weight=9.167132571339609 11.151206359267237 12.70653887093067 10.210758626461031 29.866309106349945 68.361909940838814 25.892992913722992 14.20946688950062 12.401174783706663 14.853627905249594 15.827757954597471 18.518714606761932 9.9079154282808286
leaf_count=40 48 55 43 127 314 111 61 53 64 69 80 43
internal_value=-0.000694414 0.00222454 0.00591876 0.0088908 0.0143426 -0.00480034 -0.00941999 -0.0147075 -0.0092011 -0.0184626 -0.0225559 0.00498549
internal_weight=253.076 211.004 161.892 136.828 98.2282 38.5995 49.1123 42.0711 25.0644 30.0372 29.6699 19.075
internal_count=1108 927 714 607 441 166 213 181 107 130 128 83
is_linear=0
shrinkage=0.03


Tree=39
num_leaves=11
num_cat=0
split_feature=14 19 18 2 18 12 16 19 19 9
split_gain=9.6902 12.9685 10.3619 8.67515 5.9428 7.86771 5.81424 12.4124 5.6336 2.99607
threshold=-0.98296291314453399 0.020865727962001753 0.71981965797253189 0.092971215092836776 0.44106444464603939 -0.0029423336034827391 -0.56174490092936669 0.0057665652147044907 0.0090552805910663978 0.5517241378041905
decision_type=2 2 2 2 2 2 2 2 2 2
left_child=-1 3 4 -2 5 -3 7 -5 -8 -4
right_child=1 2 9 6 -6 -7 8 -9 -10 -11
leaf_value=0.020353000788225675 0.01955077465480384 0.025806481488575495 0.0050517322832502182 0.018668417945617955 0.034946152800882507 -0.0062091972635632117 -0.025323149874899486 -0.0076637969122644763 -0.0057394756767177374 -0.015297593487836708
leaf_weight=15.223326116800306 8.1544978618621808 9.1752598881721497 9.2834427952766436 15.992315381765364 11.783685475587843 13.18930695950985 25.35604339838028 101.60290677845478 32.004032358527184 10.83895084261894
leaf_count=73 37 40 40 72 52 56 110 444 139 45
internal_value=-0.000698067 -0.00232268 0.0101389 -0.00616834 0.0196594 0.00806945 -0.00772704 -0.00363281 -0.0153739 -0.00608285
internal_weight=252.604 237.38 54.2706 183.11 34.1483 22.3646 174.955 117.595 57.3601 20.1224
internal_count=1108 1035 233 802 148 96 765 516 249 85
is_linear=0
shrinkage=0.03


Tree=40
num_leaves=15
num_cat=0
split_feature=19 9 11 21 21 6 19 16 12 4 19 15 18 19
split_gain=9.65432 8.00296 7.84852 5.51749 6.4197 6.66624 4.69109 10.7502 3.36174 8.8971 9.48817 7.45401 2.95003 0.0240628
threshold=0.01494515791504168 0.81249974606848741 0.0045562014875398802 0.040141163138854082 0.77162579267932241 0.25082684051512505 0.0061963976371023138 -0.56174490092936669 0.0044357041126502367 -8.8607495230361142e-05 0.022005483218124202 1.0000000180025095e-35 0.83381449790030138 0.020064707494719204
decision_type=2 2 2 2 2 2 2 2 2 2 2 2 2 2
left_child=1 3 8 6 5 -5 7 -1 11 -10 -11 -2 -8 -13
right_child=2 -3 -4 4 -6 -7 12 -9 9 10 -12 13 -14 -15
leaf_value=0.016118145799717608 -0.0012242779849541158 0.013299220726267208 -0.014252203226405644 -0.0049301093675429694 -0.017190460703971483 0.016503294371252482 -0.018932967110445443 -0.020842775395347964 -0.018118049553388575 0.00022769816008240848 0.026226620224687355 0.014308410994043192 -0.001618599564206704 0.033553927241840413
leaf_weight=13.146789729595186 11.685321837663652 16.264313325285912 11.271510437130926 24.957669794559479 12.061180189251898 21.405500680208206 51.570251569151878 9.6152009665966016 9.4073066264390928 35.168246358633041 17.411859825253487 10.334992691874506 12.678286969661711 9.7462763935327512
leaf_count=60 49 72 47 111 53 98 226 42 40 152 76 45 56 44
internal_value=-0.000306479 -0.00490594 0.00663121 -0.00723014 0 0.00518477 -0.0118901 0 0.00959898 0.00491216 0.00995005 0.0172727 -0.0158747 0.0271861
internal_weight=266.725 161.699 105.026 145.435 58.4244 46.3632 87.0105 22.762 93.754 61.9874 52.5801 31.7666 64.2485 20.0813
internal_count=1171 718 453 646 262 209 384 102 406 268 228 138 282 89
is_linear=0
shrinkage=0.03


Tree=41
num_leaves=12
num_cat=0
split_feature=14 19 9 19 13 14 13 11 12 8 9
split_gain=10.723 16.3721 9.17941 7.37538 5.08846 21.2652 9.13931 4.04283 3.83319 4.13802 3.50245
threshold=-0.98296291314453399 0.015642594434626688 0.81249974606848741 0.032560906864498973 0.37940952255126054 -0.37940952255126015 -0.78656609248549303 0.0010869826564423592 0.017787231468381372 0.0029308155138184637 0.52151008365192586
decision_type=2 2 2 2 2 2 2 2 2 2 2
left_child=7 2 4 8 6 -6 -2 -1 10 -10 -3
right_child=1 3 -4 -5 5 -7 -8 -9 9 -11 -12
leaf_value=0.032449654497776897 0 0.020475015752727282 0.012036797363374934 -0.011345753155191686 0.0171430035814004 -0.017432590421514405 -0.021832989053138914 0.0030687879104410822 0.012298567226810015 -0.011427955236011395 0.0048287483785631269
leaf_weight=8.5634013563394564 23.378219172358513 35.648338913917542 15.470446124672888 12.851175606250761 23.789126008749008 36.649789929389954 55.106445372104645 8.9046010076999647 9.5425008833408373 10.990249887108801 25.494089230895042
leaf_count=42 101 156 68 54 110 160 241 41 42 46 110
internal_value=-0.000289821 -0.00201586 -0.00800718 0.00762304 -0.0105099 -0.00351444 -0.0154588 0.020557 0.0110102 0 0.0146224
internal_weight=266.388 248.92 154.394 94.5264 138.924 60.4389 78.4847 17.468 81.6752 20.5328 61.1424
internal_count=1171 1088 680 408 612 270 342 83 354 88 266
is_linear=0
shrinkage=0.03


Tree=42
num_leaves=18
num_cat=0
split_feature=19 13 13 15 13 15 17 4 17 13 4 13 15 4 17 3 20
split_gain=8.59389 7.55166 16.2735 11.7585 11.5 23.6813 16.1302 6.96302 6.52562 6.047 7.32789 5.51341 9.87356 10.2212 7.08524 12.1296 1.39442
threshold=0.01494515791504168 1.0000000180025095e-35 0.12940952255126045 0.70440582564969101 -0.5 1.0000000180025095e-35 -1.0000000180025095e-35 -0.063165786801071974 0.014004105076767682 -0.37940952255126059 6.0942253881778048e-05 -0.5 1.0000000180025095e-35 -0.00017168249229450314 0.0053010677456535342 64.798176379001404 0.58634527893503541
decision_type=2 2 2 2 2 2 2 2 2 2 2 2 2 2 2 2 2
left_child=1 4 -3 7 5 -1 -7 -4 11 -6 -11 12 -2 -14 16 -16 -13
right_child=8 2 3 -5 9 6 -8 -9 -10 10 -12 14 13 -15 15 -17 -18
leaf_value=-0.027644353594783403 -0.015336631161414748 0.029575843749789534 -0.012871799256765886 -0.02375346062916955 -0.038372447552905135 0.03736675613748084 -0.0052617630646571868 0.0089283821359469068 -0.013967000324491051 -0.025585446701605525 0.0076344121508431827 0.011161199318577149 0.029038967247830304 -0.0041313344783019271 -0.017644369483619134 0.018915122486649699 0.034407381888033398
leaf_weight=15.448641300201414 17.150468647480011 12.339459165930746 15.589564353227614 17.531844183802605 13.195726215839388 12.229774162173271 14.809376820921898 41.717196479439735 9.7874316871166211 9.1395232528448123 9.1132397502660734 9.3225016146898287 12.49190114438534 15.921774893999098 10.703943297266962 17.111095905303955 12.297291755676268
leaf_count=68 72 61 67 77 57 54 63 190 41 40 41 41 56 67 45 75 56
internal_value=-0.00026303 -0.00461424 0.00129684 -0.0042104 -0.0114798 -0.000761132 0.0155257 0.00250339 0.0062859 -0.0243723 -0.00983955 0.00882801 0.000919533 0.0115458 0.015476 0.00420595 0.0273306
internal_weight=265.901 161.114 87.1781 74.8386 73.9363 42.4878 27.0392 57.3068 104.786 31.4485 18.2528 94.999 45.5641 28.4137 49.4348 27.815 21.6198
internal_count=1171 718 395 334 323 185 117 257 453 138 81 412 195 123 217 120 97
is_linear=0
shrinkage=0.03


Tree=43
num_leaves=8
num_cat=0
split_feature=1 2 13 13 17 5 21
split_gain=6.54284 6.32864 5.83411 8.29234 8.64694 8.43207 1.79865
threshold=0.092864426227223185 0.093686358750483853 0.91597561503675362 -0.37940952255126059 -0.00014006421876927271 -0.015104215732580974 0.057155127496211107
decision_type=2 2 2 2 2 2 2
left_child=-1 -2 3 4 -3 -5 -4
right_child=1 2 6 5 -6 -7 -8
leaf_value=0.019757094707851506 -0.017988830693633238 0.0035162026004356872 -0.019322417971429511 -0.0072456499818465405 -0.013190717303750885 0.011754418312020044 -0.0011794394390218016
leaf_weight=10.890633195638655 16.098618224263191 56.572406649589539 13.927021354436876 24.789515137672424 49.133576422929764 84.580207675695419 9.0867850929498655
leaf_count=51 69 246 62 108 211 384 40
internal_value=-0.000259473 -0.00137253 -1.80818e-06 0.00156318 -0.00431633 0.00728934 -0.0134669
internal_weight=265.079 254.188 238.09 215.076 105.706 109.37 23.0138
internal_count=1171 1120 1051 949 457 492 102
is_linear=0
shrinkage=0.03


Tree=44
num_leaves=14
num_cat=0
split_feature=14 20 20 18 13 13 17 13 9 17 17 6 13
split_gain=9.71666 7.05065 9.45701 5.72442 5.6627 4.98152 6.34756 4.06725 3.63744 3.44759 3.33161 2.84111 1.85921
threshold=-0.98296291314453399 0.53571458256928028 0.67752075046767957 0.32527992952621515 0.60355339059327384 -0.78656609248549303 -0.0028465588758107142 -0.25881904510252113 0.4224714728853039 0.0070348450879287342 0.0039138058548265388 0.44893582171885643 0.60355339059327384
decision_type=2 2 2 2 2 2 2 2 2 2 2 2 2
left_child=10 3 5 7 9 11 -7 -2 -5 -4 -1 -3 -10
right_child=1 2 4 8 -6 6 -8 -9 12 -11 -12 -13 -14
leaf_value=0.030768046748712388 -0.0098707572422566843 0.0051057756059679025 -0.019357296227301604 -0.024857808386800528 0.007867889023684238 -0.0098532446279199996 0.0064576430708130385 0.013391491667019872 0.00074374396108193045 0 0.0034610300595486489 0.026197791882001404 -0.014448259660691017
leaf_weight=8.3142192214727419 9.8767054975032824 14.738099649548532 29.445555403828621 20.157493233680725 10.79800310730934 25.915190175175667 79.026210382580757 11.046268060803412 13.53369063138962 11.511806413531302 8.8743653893470746 11.546514973044394 9.9334123134613019
leaf_count=43 43 64 129 89 47 111 354 49 59 49 40 50 44
internal_value=-0.00026105 -0.00190438 0.00109212 -0.0102034 -0.00937492 0.00540462 0.0021844 0.00217354 -0.0160905 -0.0143523 0.0197247 0.0164132 -0.00625563
internal_weight=264.718 247.529 182.981 64.5476 51.7554 131.226 104.941 20.923 43.6246 40.9574 17.1886 26.2846 23.4671
internal_count=1171 1088 804 284 225 579 465 92 192 178 83 114 103
is_linear=0
shrinkage=0.03


Tree=45
num_leaves=16
num_cat=0
split_feature=19 12 5 17 19 6 5 17 7 1 0 12 21 6 4
split_gain=7.39344 9.1131 7.47774 10.9807 7.96053 7.77994 5.98487 6.89957 7.00166 4.72481 5.16529 4.15313 2.96292 2.35294 2.00619
threshold=0.013207624940035169 0.0026222286452524612 -0.002145855969353897 0.0021559825297927039 0.0057665652147044907 3.577931971104642 -8.2866953049139352e-05 0.014004105076767682 -0.18916477003994156 88.931604578655438 2062.9828835632588 0.0014766446233493464 -0.03586412085439921 6.4126211873870265 0.0018304675185819577
decision_type=2 2 2 2 2 2 2 2 2 2 2 2 2 2 2
left_child=2 12 5 4 -4 -1 -3 8 -8 14 -11 -6 -2 -7 -5
right_child=1 6 3 9 11 13 7 -9 -10 10 -12 -13 -14 -15 -16
leaf_value=-0.026787843870741717 0.0046276302685636008 -0.018657429869417343 0.029634192398190328 -0.0067496067874328559 -0.0069211247322370426 0.008283873684729378 -0.0052035902687848643 -0.017232897364334296 0.014205191262895768 0.011823117803208555 -0.013414744024039769 0.010720079039274251 0.02422814087570507 -0.010167569360338153 -0.028226986355334837
leaf_weight=21.635125204920769 14.397741347551344 10.973054200410841 9.5424665510654432 10.698672994971277 20.612348988652229 9.5083501338958758 24.97564996778965 10.041334450244902 38.76631897687912 11.293681994080545 11.822200894355772 21.129786506295204 19.548582568764687 9.2439640760421735 11.201565727591513
leaf_count=95 62 47 44 48 93 41 107 42 171 53 54 95 88 41 48
internal_value=-0.000607315 0.00476657 -0.00534067 -0.000566291 0.00860161 -0.0156911 -0.000532344 0.00266965 0.00657345 -0.0110831 -0.000797987 0.0019277 0.0172093 -0.000545862 -0.0201736
internal_weight=255.391 118.703 136.688 96.3007 51.2846 40.3874 84.7564 73.7833 63.742 45.0161 23.1159 41.7421 33.9463 18.7523 21.9002
internal_count=1129 517 612 435 232 177 367 320 278 203 107 188 150 82 96
is_linear=0
shrinkage=0.03


Tree=46
num_leaves=10
num_cat=0
split_feature=15 7 21 2 12 6 13 8 11
split_gain=8.13315 6.99806 8.98084 7.19176 6.51573 6.19126 7.37702 6.08044 2.75206
threshold=-0.70440582564969068 -0.8085175800642449 -0.050057410032498355 85.677347222041888 0.015870523479834649 0.00040066963860216283 -0.78656609248549303 -0.0030816216390422975 0.0025388856467826186
decision_type=2 2 2 2 2 2 2 2 2
left_child=-1 3 5 -2 7 -3 -7 -4 -6
right_child=1 2 4 -5 8 6 -8 -9 -10
leaf_value=-0.020966461841270587 0.0049778076428290867 0.01474454524813814 -0.0051232236291029083 -0.024912123767493317 -0.015882349797339428 0.0097869783287089437 -0.010883376719475438 0.014637669847567621 0.003153659564777199
leaf_weight=13.552468121051787 10.007111087441446 10.865713909268377 14.500253111124037 14.936113119125364 9.6000632941722888 16.641468971967697 72.109085723757744 80.93302983045578 11.877879321575163
leaf_count=61 44 48 64 66 42 71 314 367 52
internal_value=-0.000601362 0.000748071 0.00257353 -0.0133514 0.00814542 -0.00392497 -0.00671614 0.0114791 -0.00589097
internal_weight=255.023 241.471 216.527 24.9432 116.911 99.6163 88.7506 95.4333 21.4779
internal_count=1129 1068 958 110 525 433 385 431 94
is_linear=0
shrinkage=0.03


Tree=47
num_leaves=17
num_cat=0
split_feature=19 12 13 11 7 20 4 20 17 21 13 13 19 11 21 18
split_gain=7.00603 8.55692 10.2725 14.4482 9.19753 7.30694 7.82365 7.52815 8.20388 6.39429 6.06652 5.66369 4.54242 3.65092 2.72359 0.438684
threshold=0.013207624940035169 0.0026222286452524612 -0.37940952255126059 0.0045562014875398802 -0.22871401507018621 0.69764581556019556 -0.002275449694900455 0.56029703216363524 0.0021559825297927039 -0.41402889397563053 -0.5 1.0000000180025095e-35 0.023644139078746771 -0.0003430457908752404 -0.03586412085439921 0.2685715252606023
decision_type=2 2 2 2 2 2 2 2 2 2 2 2 2 2 2 2
left_child=5 14 9 4 -4 6 10 11 -9 -3 -1 -8 -11 -7 -2 -12
right_child=1 2 3 -5 -6 13 7 8 -10 12 15 -13 -14 -15 -16 -17
leaf_value=0.0042173386085422844 0.0045790920786040025 0.0056846933517765248 -0.0034229429017527415 -0.01783724663339091 0.027663469982571975 -0.0023677896439322547 -0.020105062803833531 0.021922645606571652 -0.0021996989976750146 -0.026709471245902981 -0.01014421073932583 0.0023635996546988768 -0.00056011562330092826 -0.028410709551828669 0.023488742866812257 -0.027189675122771102
leaf_weight=9.8411981165409106 14.385184556245802 11.604791417717932 11.000924333930014 10.824501037597654 23.777371197938919 8.8728619515895861 13.663479313254355 24.110677719116211 21.765904948115349 17.830496624112133 10.124553725123407 22.770924255251884 9.575447738170622 13.327121704816816 19.443432047963142 11.800189971923826
leaf_count=43 62 50 48 45 108 39 59 111 100 75 44 105 41 59 88 52
internal_value=-0.000593654 0.00464109 -0.000492525 0.00881101 0.0181012 -0.00520991 -0.00184189 0.0030096 0.0108612 -0.011435 -0.0138467 -0.00672276 -0.0188258 -0.0198801 0.0167201 -0.0218478
internal_weight=254.719 118.442 84.6135 45.6028 34.7783 136.277 114.077 82.311 45.8766 39.0107 31.7659 36.4344 27.4059 22.2 33.8286 21.9247
internal_count=1129 517 367 201 156 612 514 375 211 166 139 164 116 98 150 96
is_linear=0
shrinkage=0.03


Tree=48
num_leaves=12
num_cat=0
split_feature=14 19 6 14 13 16 8 1 21 8 20
split_gain=8.41341 10.7151 7.33205 8.71546 5.90066 23.2954 10.5738 8.17697 5.45057 4.96553 3.92826
threshold=-0.98296291314453399 0.013207624940035169 0.0004445266609593988 -0.60355339059327384 0.60355339059327384 -0.56174490092936669 0.0009189606154834663 0.09489496613882667 0.55636901686786877 -0.0015509948626796219 0.67752075046767957
decision_type=2 2 2 2 2 2 2 2 2 2 2
left_child=-1 4 -3 8 7 6 -6 -2 -4 -5 -9
right_child=1 2 3 9 5 -7 -8 10 -10 -11 -12
leaf_value=0.019272330136498855 0.011629761398558184 0.021908592371599131 -0.011658906136262262 0.023046933441436317 0.029327639028162794 -0.025987375291052373 -0.0041330026819029891 -0.010459088665235466 0.0092495559940515681 0.0021884391116477027 -0.027264839833267187
leaf_weight=14.796566739678381 8.447591155767439 15.464181363582609 42.176287487149239 15.403670608997343 17.300319612026218 15.896257624030111 12.770793810486792 52.923705250024796 11.972773119807242 27.388064831495285 19.652682706713676
leaf_count=73 37 70 182 68 80 71 58 231 53 118 88
internal_value=-0.000596217 -0.0020847 0.00454885 0.00111502 -0.00799503 0.000431217 0.0157594 -0.0127273 -0.00663554 0.0109114 -0.0160306
internal_weight=254.193 239.396 112.405 96.9408 126.991 45.9674 30.0711 81.024 54.1491 42.7917 72.5764
internal_count=1129 1056 491 421 565 209 138 356 235 186 319
is_linear=0
shrinkage=0.03


Tree=49
num_leaves=18
num_cat=0
split_feature=19 19 5 13 21 9 19 5 2 4 13 19 10 4 19 13 7
split_gain=6.30068 6.89899 6.61919 8.15656 5.50816 5.43094 9.23296 5.36029 4.47018 3.98657 3.90792 3.69333 3.18951 3.18356 2.24903 1.2194 0.4348
threshold=0.013207624940035169 0.031529191420955865 -0.002145855969353897 -0.37940952255126059 -0.014586624277642566 0.59411707724459706 0.022005483218124202 1.0000000180025095e-35 86.251697569101694 -0.79033332680592128 0.78656609248549325 0.0074467990011691234 -1.0000000180025095e-35 0.00049989227651883056 0.0087972533104753951 0.25881904510252091 -0.35540113453481087
decision_type=2 2 2 2 2 2 2 2 2 2 2 2 2 2 2 2 2
left_child=2 5 9 7 11 6 8 -4 -2 12 -6 -5 -1 16 -9 -11 -7
right_child=1 -3 3 4 10 13 -8 14 -10 15 -12 -13 -14 -15 -16 -17 -18
leaf_value=-0.014613394129772861 -0.0035158913945856456 -0.012206605311103414 0.0047833633184823782 0.0095699327138569681 0.018975741434099899 0.0095437946557532169 0.027624841806802962 -0.028651658659779828 0.014108217063493186 -0.009263438965226245 -0.00077387617189554766 -0.011407134216295299 0.006742350703053031 -0.011000929514428187 -0.0068329556975816061 -0.029970242399097721 0
leaf_weight=8.7734956443309802 27.51827284693718 16.053864166140556 9.65374046564102 8.5357012450695056 24.926907882094383 9.2154926061630231 20.566582888364792 10.537382334470751 19.26799102127552 9.7854722142219561 11.725762292742727 18.447400644421577 10.25696264207363 15.922449603676794 11.848591759800909 11.118924915790556 9.4613803774118441
leaf_count=40 122 68 42 40 120 41 92 46 85 45 53 82 45 68 52 47 41
internal_value=-0.000563453 0.00440624 -0.0049547 -0.00045118 0.00563182 0.00738207 0.012194 -0.0122376 0.00397424 -0.0147492 0.01285 -0.0041776 -0.0033439 -0.00197134 -0.0196301 -0.0230328 0.00576852
internal_weight=253.616 118.006 135.61 95.6755 63.6358 101.952 67.3528 32.0397 46.7863 39.9349 36.6527 26.9831 19.0305 34.5993 22.386 20.9044 18.6769
internal_count=1129 517 612 435 295 449 299 140 207 177 173 122 85 150 98 92 82
is_linear=0
shrinkage=0.03


Tree=50
num_leaves=12
num_cat=0
split_feature=14 19 12 15 14 12 5 12 11 3 19
split_gain=14.8236 6.79431 8.31718 8.86008 5.36116 4.75572 7.39762 14.0115 8.38054 2.11015 1.36591
threshold=-0.98296291314453399 0.017439220847835644 0.0087944827739584435 1.0000000180025095e-35 -0.70710678118654757 0.017494723579929313 -0.002145855969353897 -0.0031220300424196312 0.00025820208751459189 58.411754966009426 0.021568143821520353
decision_type=2 2 2 2 2 2 2 2 2 2 2
left_child=-1 5 3 -3 9 6 7 -2 -8 -4 -5
right_child=1 2 4 10 -6 -7 8 -9 -10 -11 -12
leaf_value=0.025649233612956675 -0.031583931210119064 -0.003397545682770153 -0.021887366367167975 0.01090999021156624 0.00794137185906864 -0.021339037613680879 0.0096258842553906838 0.0015295736222937788 -0.0071404238886986493 -0.0034703675322572407 0.033435678206858326
leaf_weight=15.170269653201101 18.680604502558708 13.181775167584417 9.5443237572908419 9.8875174969434756 16.648338034749031 13.766051009297369 45.494947865605354 22.899256348609924 56.965552344918251 15.243267744779585 11.30249138176441
leaf_count=76 83 56 41 43 72 60 205 101 257 66 53
internal_value=-0.0004259 -0.00246092 0.00473303 0.0150873 -0.00409215 -0.00599658 -0.00406362 -0.0142698 0.000280933 -0.012483 0.0259535
internal_weight=248.784 233.614 75.8077 34.3718 41.4359 157.806 144.04 41.5799 102.461 24.7876 21.19
internal_count=1113 1037 331 152 179 706 646 184 462 107 96
is_linear=0
shrinkage=0.03


Tree=51
num_leaves=12
num_cat=0
split_feature=2 20 4 15 12 12 2 6 20 15 17
split_gain=6.27879 4.33146 5.47571 6.79342 13.9492 6.09258 3.88594 6.40648 6.36137 2.74091 3.4713
threshold=0.092804067490136574 0.68652227821022194 0.021288042496536267 1.0000000180025095e-35 0.010979722664211504 0.020811895040062738 1.3818280660319606 0.22236167688175121 0.51515743648156087 1.0000000180025095e-35 -0.00060336918497694964
decision_type=2 2 2 2 2 2 2 2 2 2 2
left_child=-1 2 6 5 -5 -4 8 -8 -2 10 -3
right_child=1 9 3 4 -6 -7 7 -9 -10 -11 -12
leaf_value=0.019730380964780768 -0.012404515807328509 -0.0028412720997398806 0.027103172541872445 0.0086532521310914799 -0.026142958378188183 -0.0010136956560611763 -0.018576807858454721 -0.0002522288791510366 0.0087704919468331657 0 -0.025640334042239317
leaf_weight=10.150754332542418 15.250187188386915 13.060756653547287 17.355727374553684 37.099439591169357 10.978210553526877 9.2949874699115735 27.512176111340523 41.803980261087418 38.884730964899063 14.862610325217245 12.086031809449196
leaf_count=50 67 58 86 167 46 40 122 185 173 65 54
internal_value=-0.000412566 -0.00154304 0.000281567 0.00658447 -0.00018484 0.0178829 -0.00352828 -0.00811879 0.00230971 -0.0101794 -0.0156836
internal_weight=248.34 238.189 198.179 74.7284 48.0777 26.6507 123.451 69.3162 54.1349 40.0094 25.1468
internal_count=1113 1063 886 339 213 126 547 307 240 177 112
is_linear=0
shrinkage=0.03


Tree=52
num_leaves=13
num_cat=0
split_feature=14 19 12 8 13 0 5 0 23 17 3 8
split_gain=14.0115 6.45762 7.84636 10.279 13.5549 5.42997 5.69766 9.23462 7.44489 5.06254 1.58766 0.959625
threshold=-0.98296291314453399 0.017439220847835644 0.0087944827739584435 0.0029308155138184637 -0.25881904510252113 0.094925658668478241 0.080904308233354191 2053.8782233377547 -1.0000000180025095e-35 -0.010433306420102954 53.392865706042834 0.00030228276709565188
decision_type=2 2 2 2 2 2 2 2 2 2 2 2
left_child=-1 5 9 4 -4 10 8 -8 -7 -3 -2 -11
right_child=1 2 3 -5 -6 6 7 -9 -10 11 -12 -13
leaf_value=0.02508155286796316 0.014116604231725892 -2.8664802035251908e-05 -0.013247833850137119 -0.019931190698352981 0.027193566247261391 0.00044926934349127928 0.011038574677351004 -0.013214522820165516 -0.018156595005915099 0.0094210957645589032 -0.00096354225298882342 0.028857496280046437
leaf_weight=14.977963894605635 11.026739150285723 12.618502259254454 11.437897756695749 17.390139937400818 12.556291028857229 26.374977707862854 28.068889692425728 22.915234759449959 60.091127201914787 9.7946723848581332 8.8671765774488431 11.826640188693998
leaf_count=76 50 54 49 73 57 118 128 104 266 44 40 54
internal_value=-0.00041053 -0.00238564 0.00463359 -0.00393471 0.00825215 -0.00583899 -0.00799446 0 -0.0125558 0.0147141 0.00775645 0.0226389
internal_weight=247.946 232.968 75.6241 41.3843 23.9942 157.344 137.45 50.9841 86.4661 34.2398 19.8939 21.6213
internal_count=1113 1037 331 179 106 706 616 232 384 152 90 98
is_linear=0
shrinkage=0.03


Tree=53
num_leaves=12
num_cat=0
split_feature=14 19 9 1 20 20 13 20 11 11 0
split_gain=13.3923 6.1654 9.00911 8.56633 6.42321 6.68631 6.83921 5.37583 3.9704 2.96577 5.13576
threshold=-0.98296291314453399 0.021568143821520353 0.54858616881997513 90.371253620058823 0.66885741128701626 0.51215518711377706 -0.37940952255126059 0.60584682397277589 -0.0003430457908752404 -0.0006253170616757896 87.255869929768977
decision_type=2 2 2 2 2 2 2 2 2 2 2
left_child=-1 4 3 -3 5 8 -7 -4 -2 -6 -11
right_child=1 2 7 -5 9 6 -8 -9 -10 10 -12
leaf_value=0.024642983745272677 0.0013041618254158852 0.02874071413980905 0.0058716665348204121 -0.0013071547443235592 -0.0011601117347038027 -0.0061705194558997652 0.0090393971847169598 -0.021660094513852195 -0.018331442991861863 -0.0012009629053552509 -0.027365966982799052
leaf_weight=14.842639878392218 12.138584688305853 17.153415471315387 10.233609274029734 13.432413160800932 12.760318562388418 43.959552302956581 57.796724945306778 9.541003614664076 24.685555130243301 11.038440674543383 19.880708619952202
leaf_count=76 54 78 45 58 56 190 268 40 110 49 89
internal_value=-0.000378357 -0.00230651 0.00664927 0.0163386 -0.00489727 -0.00154663 0.00239414 -0.00812027 -0.0120222 -0.0145524 -0.0192225
internal_weight=247.463 232.62 50.3604 30.5858 182.26 138.58 101.756 19.7746 36.8241 43.6795 30.9191
internal_count=1113 1037 221 136 816 622 458 85 164 194 138
is_linear=0
shrinkage=0.03


Tree=54
num_leaves=15
num_cat=0
split_feature=13 4 19 12 13 20 13 9 8 11 11 19 20 13
split_gain=7.07495 10.8049 11.0652 10.5246 10.3272 8.51189 11.3291 8.3575 7.49867 7.10652 5.96938 5.81433 2.99925 2.45003
threshold=-0.37940952255126059 -0.008616035840631751 0.0086703573456842712 0.0030935317299906483 -0.70710678118654735 0.68271647619542308 0.78656609248549325 0.64705882333666465 -0.0029194892957292713 -0.00010235020955740025 0.00053268795596506113 0.02505979781410277 0.62923976457103914 -0.70710678118654735
decision_type=2 2 2 2 2 2 2 2 2 2 2 2 2 2
left_child=3 2 -2 8 12 6 7 -3 -1 13 -8 -6 -5 -10
right_child=1 5 -4 4 11 -7 10 -9 9 -11 -12 -13 -14 -15
leaf_value=-0.012477369626795336 -0.027507041438860205 0.022597267051900995 0.0072735329066088115 -0.0083887393956228462 -0.030847370619878633 -0.011970174782386659 0.0085153013980919789 0 0.0084135052412892576 -0.0095156997057282301 -0.019005403204456282 -0.0032309432459882285 0.011819331214445585 0.029297807568619879
leaf_weight=14.921523615717886 14.682480022311212 55.248503237962723 12.947123199701307 9.5321752578020114 25.533375307917595 13.459458246827124 10.425535097718241 20.233353301882744 17.77397221326828 8.9047090858221072 12.062639608979223 11.051356509327887 10.720104262232779 9.4776510149240476
leaf_count=64 65 264 58 40 111 58 48 91 80 41 55 48 47 43
internal_value=-0.000371425 0.00402821 -0.0117991 -0.00607755 -0.0146656 0.00823778 0.0113763 0.016827 0.00359583 0.0109067 -0.00639312 -0.0236096 0.00206575 0.0181593
internal_weight=246.974 139.059 27.6296 107.915 56.837 111.429 97.97 75.4819 51.0779 36.1563 22.4882 36.5847 20.2523 27.2516
internal_count=1113 639 123 474 246 516 458 355 228 164 103 159 87 123
is_linear=0
shrinkage=0.03


Tree=55
num_leaves=13
num_cat=0
split_feature=14 19 19 8 17 5 17 19 9 19 11 15
split_gain=7.81131 8.7361 11.2763 6.52801 8.55733 11.0279 5.78665 4.72216 3.17568 2.79723 1.88017 2.73139
threshold=-0.9159756150367534 0.020865727962001753 0.031529191420955865 -0.0049059856681906147 0.0030185167918951109 -4.8089010108940818e-05 0.0056752548253654724 0.011292019565605821 0.47192257990624953 0.0092443578590252259 0.0025388856467826186 1.0000000180025095e-35
decision_type=2 2 2 2 2 2 2 2 2 2 2 2
left_child=6 3 10 -2 5 -5 9 -6 -8 -1 11 -3
right_child=1 2 -4 4 7 -7 8 -9 -10 -11 -12 -13
leaf_value=0.0058373554748240627 -0.028350059640643355 0.0055613409215580379 -0.013958066483347754 -0.0082854603125929703 -0.026291523853566576 0.010735879370662248 0.0086694071955032825 -0.0057511272804077907 -0.011469360321926149 0.029452905945919462 0.0037325670999055491 0.029913935729336791
leaf_weight=11.454197689890863 9.5530435144901258 9.5518496185541206 12.844220533967016 65.03621344268322 19.268266931176186 42.889391124248505 11.164539724588396 25.060267776250839 10.858059674501417 10.236841425299643 10.643059924244879 11.741014614701269
leaf_count=57 41 41 55 288 85 198 51 111 47 51 46 54
internal_value=-0.00148892 -0.00397561 0.0073155 -0.00723132 -0.00532606 -0.000559369 0.00957093 -0.0159702 -0.00108482 0.0195714 0.016593 0.0213959
internal_weight=250.301 206.587 44.7801 161.807 152.254 107.926 43.7136 44.3285 22.0226 21.691 31.9359 21.2929
internal_count=1125 919 196 723 682 486 206 196 98 108 141 95
is_linear=0
shrinkage=0.03


Tree=56
num_leaves=11
num_cat=0
split_feature=2 19 12 12 17 19 19 19 17 5
split_gain=6.11886 4.08255 7.31599 8.34081 7.0067 5.08794 4.14011 5.44113 4.6904 3.59985
threshold=0.092804067490136574 0.01298605895954119 -0.0041217289801155363 0.015459485784420759 0.0056752548253654724 0.031529191420955865 0.020865727962001753 0.018684230416580742 0.010177013018867696 -0.002145855969353897
decision_type=2 2 2 2 2 2 2 2 2 2
left_child=-1 2 9 4 -4 6 7 -3 -8 -2
right_child=1 5 3 -5 -6 -7 8 -9 -10 -11
leaf_value=0.019335648520101643 -0.027733856216574419 0.004445515604707336 0.0049212413541002741 -0.023521666740406698 -0.019161700502079621 -0.012926497375446516 0.018208351277760011 -0.015314818759595573 -0.0038501074309230266 -0.0061811363322674716
leaf_weight=9.0858942568302137 14.742546409368513 46.383391067385674 76.995341032743454 10.653328970074652 9.5334565937519056 15.094731017947195 25.956606358289719 13.772030577063559 10.221022471785544 17.444422125816345
leaf_count=45 67 207 356 47 42 65 115 59 44 78
internal_value=-0.0014444 -0.00249368 -0.00607448 -0.0016733 0.00161416 0.00163529 0.00432911 -0.000448512 0.011929 -0.0178316
internal_weight=249.883 240.797 129.369 97.1821 86.5288 111.428 96.3331 60.1554 36.1776 32.187
internal_count=1125 1080 590 445 398 490 425 266 159 145
is_linear=0
shrinkage=0.03


Tree=57
num_leaves=17
num_cat=0
split_feature=14 18 15 13 13 14 4 13 21 11 9 18 13 2 6 8
split_gain=7.51101 4.88036 13.4624 10.7792 10.0157 17.0526 8.79383 5.01624 4.53323 4.08471 3.51992 3.25668 2.91225 2.47916 3.03023 1.73492
threshold=-0.9159756150367534 0.71327883257689872 1.0000000180025095e-35 -1.0000000180025095e-35 -0.5 0.25881904510252057 -0.00010972874347776189 -0.78656609248549303 -0.41402889397563053 0.0016022179919624737 0.25916274766010144 0.67003117219407038 -0.37940952255126059 1.4015257237627898 1.1229374272473502 0.0018555904720150009
decision_type=2 2 2 2 2 2 2 2 2 2 2 2 2 2 2 2
left_child=8 2 3 7 6 -6 -4 -2 -1 13 -5 -10 -11 -3 -15 -13
right_child=1 9 4 10 5 -7 -8 -9 11 12 -12 15 -14 14 -16 -17
leaf_value=-0.0053787341323927916 -0.0066897294611706131 -0.0037380824644405062 0.031578128853739326 -0.011663912478885395 0.011990134804904207 -0.025606145783318535 0.0011616861434999395 -0.031112694909510717 0.0012669523956141701 -0.010215067095585327 0.0074228701014342289 0.029214456867522082 0.006480963168246214 -0.033793884619238004 -0.0069034040768436132 0.007226070062907485
leaf_weight=11.269888967275618 16.756229400634766 10.415790483355524 18.659789532423019 9.3289738595485669 25.813297286629677 14.378737717866896 15.58530220389366 18.221611633896828 12.272092416882513 17.048319756984714 25.837366387248039 10.630234465003015 14.378320708870886 10.222069457173349 9.3814100772142393 9.3887536823749524
leaf_count=49 73 47 85 42 119 63 67 81 58 73 117 55 64 44 44 44
internal_value=-0.00142696 -0.00386911 -0.000725937 -0.00999633 0.00794243 -0.00209592 0.0191855 -0.0211024 0.00943531 -0.0107472 0.00160487 0.0148783 -0.00241577 -0.0181848 -0.0239476 0.0215788
internal_weight=249.588 206.027 144.581 70.1442 74.4371 40.192 34.2451 34.9778 43.561 61.4459 35.1663 32.2911 31.4266 30.0193 19.6035 20.019
internal_count=1125 919 647 313 334 182 152 154 206 272 159 157 137 135 88 99
is_linear=0
shrinkage=0.03


Tree=58
num_leaves=16
num_cat=0
split_feature=14 17 18 15 14 17 12 3 14 12 17 0 5 11 17
split_gain=7.19979 5.50768 4.65247 12.8208 8.26608 13.2023 6.77945 5.99174 4.50805 14.5924 12.3318 2.58443 4.24435 2.33225 2.13952
threshold=-0.9159756150367534 0.0056752548253654724 0.71327883257689872 1.0000000180025095e-35 0.1294095225512602 -0.0022057765916443195 0.0016997403016818901 31.991527355204578 0.25881904510252057 0.0024214570075497999 -0.0028465588758107142 1.3872962852044035 0.080904308233354191 9.3803007497506044e-05 0.0094331090088650409
decision_type=2 2 2 2 2 2 2 2 2 2 2 2 2 2 2
left_child=1 13 3 4 7 -6 -4 -2 9 -5 -10 -8 -13 -1 -3
right_child=2 14 6 8 5 -7 11 -9 10 -11 -12 12 -14 -15 -16
leaf_value=0.0043090286969975113 0.0014900153421114142 -0.010431154889977945 -0.028641464576639089 0.024633498918853719 0.025946793130732015 -0.012379191450538642 0.0073251729386875309 -0.023640455746610209 -0.023334957882849741 -0.006133884364145103 0.016394379076216898 -0.019436713885258698 0 0.0266060505654119 0.0061669739904244101
leaf_weight=9.2513772994279879 9.9732790291309339 9.6271340996027011 11.703363090753554 31.103605449199677 10.224113881587984 17.714015230536461 9.5747337788343412 32.041627928614616 10.719663545489313 21.067565008997917 11.35206416249275 14.538966685533522 25.550590425729752 12.211136445403097 12.337667733430861
leaf_count=44 43 43 53 145 46 80 43 144 46 92 51 63 113 64 55
internal_value=-0.00140135 0.00924825 -0.003795 -0.0007185 -0.00977847 0.00251148 -0.0105136 -0.0177734 0.00774969 0.0123881 -0.0030255 -0.00468271 -0.00806979 0.01907 -0.00112673
internal_weight=248.991 43.4273 205.564 144.196 69.953 27.9381 61.3677 42.0149 74.2429 52.1712 22.0717 49.6643 40.0896 21.4625 21.9648
internal_count=1125 206 919 647 313 126 272 187 334 237 97 219 176 108 98
is_linear=0
shrinkage=0.03


Tree=59
num_leaves=8
num_cat=0
split_feature=2 15 19 19 13 5 20
split_gain=5.67053 4.64204 7.90933 6.54709 6.26487 5.15038 4.91734
threshold=0.092804067490136574 -0.70440582564969068 0.0057665652147044907 0.01298605895954119 -0.37940952255126059 -0.00045785223333016754 0.67124766080348353
decision_type=2 2 2 2 2 2 2
left_child=-1 -2 5 6 -5 -3 -4
right_child=1 2 3 4 -6 -7 -8
leaf_value=0.018739693741306906 -0.017956979868016799 -0.0012875636287823183 -0.0044544391016018772 -0.0042339285628285629 0.009822094548278407 0.025114282228057762 -0.020372682436479838
leaf_weight=8.9642773568630201 13.167934745550154 9.9337757080793399 70.503151267766953 64.073727518320084 46.33726941049099 12.8128095716238 22.610131964087486
leaf_count=45 61 43 324 281 207 63 101
internal_value=-0.00136513 -0.00237753 -0.00120852 -0.0031839 0.00168952 0.0144281 -0.00892866
internal_weight=248.403 239.439 226.271 203.524 110.411 22.7466 93.1133
