tree
version=v4
num_class=1
num_tree_per_iteration=1
label_index=0
max_feature_idx=23
objective=binary sigmoid:1
feature_names=ema20 ema50 ema200 rsi14 macd macd_signal atr14 vol_zscore momentum candle_body trend_dir ema20_slope price_vs_ema200 hour_sin hour_cos dow_sin dow_cos price_vs_vwap bb_percent_b bb_bandwidth hurst obv_slope rsi_divergence market_regime
feature_infos=[0.093022466643103041:95139.491572592509] [0.096831108575110403:94191.625465607052] [0.11313364741335905:91442.263653318674] [11.788070319577571:90.407836723811428] [-3923.2876509565976:1581.8076228542195] [-3274.6208561954527:1297.2401338570594] [0.0013676323270152746:3012.4285426641163] [-1.517665637113544:6.7130239170426123] [-0.1529058396200057:0.19138039710053567] [0:0.9999999999852941] [-1:1] [-0.076168741783864458:0.056345888344804251] [-0.36114005056618598:0.22956983960528504] [-0.86602540378443849:0.86602540378443871] [-1:1] [-0.97492791218182362:0.97492791218182362] [-0.90096886790241903:1] [-0.23116981457234953:0.16812772856959377] [-0.51372071611415493:1.4315052680117202] [0.010035545518544537:0.40037252904901416] [0.38784472573926759:0.87627954614379922] [-3661.0143884999929:1210.4789753983387] [-1:1] [-1:1]
tree_sizes=1707 1643 1192 1532 1433

Tree=0
num_leaves=15
num_cat=0
split_feature=7 23 15 18 15 3 20 15 19 13 3 19 3 20
split_gain=31.7744 31.9517 32.7396 18.8383 13.9091 14.4168 9.94011 9.01084 20.6632 8.09757 6.69206 4.90904 3.77715 0.792041
threshold=-0.63567232942715168 1.0000000180025095e-35 1.0000000180025095e-35 0.32300383274266431 0.87837969732492682 38.976624549273517 0.50015332269462909 -0.60785761079279388 0.09353448426678522 0.43301270189221946 40.945960599608235 0.057387778124548254 39.411980273980397 0.71629817104896165
decision_type=2 2 2 2 2 2 2 2 2 2 2 2 2 2
left_child=3 4 9 10 6 -6 -2 11 -9 -3 12 -5 -1 -12
right_child=1 2 -4 7 5 -7 -8 8 -10 -11 13 -13 -14 -15
leaf_value=-0.46268012288926741 -0.42748112035580255 -0.45277281708383299 -0.47228084991706809 -0.46344742734075378 -0.43607688141859646 -0.45727370658392646 -0.44022860951880038 -0.43766122666522367 -0.46495628933466798 -0.43664654767472555 -0.47501459377848348 -0.44969203116222028 -0.44790536019865779 -0.45990290499549535
leaf_weight=9.3708693087101 42.410030141472816 33.463236376643181 22.231278702616692 17.554325655102733 14.383448570966719 33.591670766472816 158.89887860417366 38.210465252399445 10.795764863491057 18.904099434614182 13.335374578833582 13.863652378320692 8.2925045490264875 7.9459737539291373
leaf_count=36 129 119 89 67 45 123 529 124 42 60 55 48 28 30
internal_value=-0.445788 -0.442578 -0.454296 -0.454735 -0.439198 -0.4499 -0.436887 -0.449206 -0.444203 -0.445665 -0.465311 -0.457177 -0.455227 -0.471716
internal_weight=443.252 323.883 74.5986 119.369 249.284 47.9751 201.309 80.4242 49.0062 52.3673 38.9447 31.418 17.6634 21.2813
internal_count=1524 1094 268 430 826 168 658 281 166 179 149 115 64 85
is_linear=0
shrinkage=1


Tree=1
num_leaves=14
num_cat=0
split_feature=7 15 11 15 21 20 5 12 6 11 16 11 12
split_gain=30.5899 24.4051 31.6992 17.3327 16.0094 13.5467 32.9373 12.7416 7.88837 7.86443 7.54184 5.88268 4.812
threshold=-0.63567232942715168 1.0000000180025095e-35 0.0081363860017897877 -0.60785761079279388 -0.40236816581721374 0.50015332269462909 1.6760825442359228 -0.12569548420822649 11.708689596247851 -0.0075971666372338089 1.0000000180025095e-35 -0.00088591460827897029 0.0014436788827784563
decision_type=2 2 2 2 2 2 2 2 2 2 2 2 2
left_child=3 5 4 7 -3 -2 -7 -1 9 -5 -4 -10 -9
right_child=1 2 10 8 -6 6 -8 12 11 -11 -12 -13 -14
leaf_value=0.0086780541753567631 0.028239331270745321 -0.0032471143802010535 -0.016451746297976126 -0.0015312504593116324 0.014280865240544447 0.016810837170438478 -0.011437478722060516 -0.01867595038645815 -0.0099872692283459828 0.015904632545434207 0.002621441841798917 0.0065645415156845898 -0.0035143935336725109
leaf_weight=10.134442180395125 37.702721446752548 23.325804889202118 21.267059803009033 11.710865691304205 92.660483300685883 125.72074447572231 14.913149654865263 20.981989160180092 12.358882486820223 33.112209588289261 9.1290314197540301 11.718751788139341 19.389525547623634
leaf_count=34 113 86 85 43 308 412 58 85 48 108 32 40 72
internal_value=0.00924152 0.0123841 0.00592935 0.000460908 0.0106847 0.0173215 0.0134568 -0.00792014 0.00685995 0.011452 -0.0108797 -0.00184392 -0.0128043
internal_weight=444.126 324.719 146.382 119.407 115.986 178.337 140.634 50.506 68.9007 44.8231 30.3961 24.0776 40.3715
internal_count=1524 1094 511 430 394 583 470 191 239 151 117 88 157
is_linear=0
shrinkage=0.02


Tree=2
num_leaves=10
num_cat=0
split_feature=20 17 23 10 20 11 20 18 3
split_gain=27.7766 30.3522 25.5825 24.4164 21.5704 20.3304 10.8354 10.2249 1.95458
threshold=0.50015332269462909 0.011087613505224924 -1.0000000180025095e-35 1.0000000180025095e-35 0.57943067730691145 -0.0034021608713679092 0.49760359740992749 0.96024956656922966 72.896805886771958
decision_type=2 2 2 2 2 2 2 2 2
left_child=6 3 -3 4 -2 -5 -1 -4 -8
right_child=1 2 7 5 -6 -7 8 -9 -10
leaf_value=0 -0.0079003261413147854 0.01879661489635457 -0.012696446473510672 -0.019653061563270843 0.013226754597364072 0.0079646180728753253 0.025071765416772775 0.0041080201728570433 0.0079361188083864661
leaf_weight=9.4964259266853315 17.132110133767128 11.384202405810354 54.043234944343567 15.599172174930571 242.22202676534653 17.333846762776375 51.256207898259163 15.434568896889685 11.064529314637182
leaf_count=34 65 35 209 64 810 59 157 54 37
internal_value=0.00904507 0.00663868 -0.00393336 0.00961406 0.0116703 -0.00571946 0.0201721 -0.00880388 0.0229934
internal_weight=444.966 373.149 80.862 292.287 259.354 32.933 71.8172 69.4778 62.3207
internal_count=1524 1296 298 998 875 123 228 263 194
is_linear=0
shrinkage=0.02


Tree=3
num_leaves=13
num_cat=0
split_feature=7 23 15 11 12 15 2 12 7 4 12 12
split_gain=28.9332 30.1998 30.4807 19.121 21.2578 16.6537 12.4927 12.2308 7.66026 11.3995 6.81468 4.78536
threshold=-0.63567232942715168 1.0000000180025095e-35 1.0000000180025095e-35 0.0066512539419827385 0.03033884890894251 -0.60785761079279388 89903.87983322551 -0.12569548420822649 -0.9192873169195358 -1.5203000190819151 -0.17573795449192825 0.0014436788827784563
decision_type=2 2 2 2 2 2 2 2 2 2 2 2
left_child=5 3 10 6 -5 7 -2 -1 -7 -10 -3 -9
right_child=1 2 -4 4 -6 8 -8 11 9 -11 -12 -13
leaf_value=0.0083482782832559194 0.01912415541266909 0.018460010402535882 -0.016833822843298901 -0.007147712843337789 0.016120791147966211 -0.0053928744294019192 -0.0021276117424862202 -0.018542778295201651 -0.0034169009257355699 0.014911388167178024 0.0030460605494869132 -0.0034400861915367459
leaf_weight=10.184093177318571 188.33458749949932 15.117021068930624 22.14303632080555 28.743409395217896 24.348132312297821 12.809634104371069 9.8418830931186658 20.931275263428688 15.953327834606169 40.332888066768646 37.64808914065361 19.366821214556694
leaf_count=34 604 47 89 108 78 48 36 85 59 132 132 72
internal_value=0.00885736 0.0119032 0.000554987 0.0151705 0.0038203 0.000324575 0.0179931 -0.00789264 0.00659059 0.00969844 0.00885083 -0.0126862
internal_weight=445.754 326.176 74.9081 251.268 53.0915 119.578 198.176 50.4822 69.0959 56.2862 52.7651 40.2981
internal_count=1524 1094 268 826 186 430 640 191 239 191 179 157
is_linear=0
shrinkage=0.02


Tree=4
num_leaves=12
num_cat=0
split_feature=23 15 15 11 3 12 8 12 18 13 12
split_gain=20.5666 33.3315 15.0801 29.8303 26.1978 19.8254 13.9703 11.7765 9.53321 7.53284 1.10774
threshold=1.0000000180025095e-35 1.0000000180025095e-35 -0.60785761079279388 0.0066512539419827385 60.496652868637746 -0.078564343239928627 -0.012937913986255432 -0.19483199740920698 0.16802082350045958 0.43301270189221946 0.049670239965019729
decision_type=2 2 2 2 2 2 2 2 2 2 2
left_child=2 7 4 6 5 -1 -4 -2 -9 -5 -3
right_child=1 10 3 9 -6 -7 -8 8 -10 -11 -12
leaf_value=0.0086553837937052899 0.022843252809773281 -0.020465778791921938 0.0070077297672115268 -0.0070989066927391624 0.022722858847418533 -0.010246256318548277 0.019277652762578455 -0.01058469837506327 0.0074645359184207392 0.0085188864221424736 -0.0047628123980367797
leaf_weight=35.69635309278965 11.248876959085463 17.399801731109623 62.119509622454643 29.848288163542747 17.389688521623611 43.567453369498253 159.14382253587246 11.132099792361258 36.89518703520298 13.949623614549635 8.1144636869430524
leaf_count=121 33 72 212 112 52 167 508 43 126 47 31
internal_value=0.00866952 -8.61918e-05 0.0107224 0.0131774 0.00357455 -0.00160676 0.0161081 0.00798355 0.00248881 -0.00155652 -0.0173981
internal_weight=446.505 84.7904 361.715 265.061 96.6535 79.2638 221.263 59.2762 48.0273 43.7979 25.5143
internal_count=1524 305 1219 879 340 288 720 202 169 159 103
is_linear=0
shrinkage=0.02


end of trees

feature_importances:
price_vs_ema200=9
dow_sin=9
ema20_slope=6
hurst=6
rsi14=5
vol_zscore=4
market_regime=4
bb_percent_b=3
hour_sin=2
bb_bandwidth=2
ema200=1
macd=1
macd_signal=1
atr14=1
momentum=1
trend_dir=1
dow_cos=1
price_vs_vwap=1
obv_slope=1

parameters:
[boosting: gbdt]
[objective: binary]
[metric: auc]
[tree_learner: serial]
[device_type: cpu]
[data_sample_strategy: bagging]
[data: ]
[valid: ]
[num_iterations: 500]
[learning_rate: 0.02]
[num_leaves: 16]
[num_threads: 0]
[seed: 0]
[deterministic: 0]
[force_col_wise: 0]
[force_row_wise: 0]
[histogram_pool_size: -1]
[max_depth: 4]
[min_data_in_leaf: 30]
[min_sum_hessian_in_leaf: 0.001]
[bagging_fraction: 0.6]
[pos_bagging_fraction: 1]
[neg_bagging_fraction: 1]
[bagging_freq: 5]
[bagging_seed: 3]
[bagging_by_query: 0]
[feature_fraction: 0.6]
[feature_fraction_bynode: 1]
[feature_fraction_seed: 2]
[extra_trees: 0]
[extra_seed: 6]
[early_stopping_round: 0]
[early_stopping_min_delta: 0]
[first_metric_only: 0]
[max_delta_step: 0]
[lambda_l1: 0.5]
[lambda_l2: 5]
[linear_lambda: 0]
[min_gain_to_split: 0.05]
[drop_rate: 0.1]
[max_drop: 50]
[skip_drop: 0.5]
[xgboost_dart_mode: 0]
[uniform_drop: 0]
[drop_seed: 4]
[top_rate: 0.2]
[other_rate: 0.1]
[min_data_per_group: 100]
[max_cat_threshold: 32]
[cat_l2: 10]
[cat_smooth: 10]
[max_cat_to_onehot: 4]
[top_k: 20]
[monotone_constraints: ]
[monotone_constraints_method: basic]
[monotone_penalty: 0]
[feature_contri: ]
[forcedsplits_filename: ]
[refit_decay_rate: 0.9]
[cegb_tradeoff: 1]
[cegb_penalty_split: 0]
[cegb_penalty_feature_lazy: ]
[cegb_penalty_feature_coupled: ]
[path_smooth: 0]
[interaction_constraints: ]
[verbosity: -1]
[saved_feature_importance_type: 0]
[use_quantized_grad: 0]
[num_grad_quant_bins: 4]
[quant_train_renew_leaf: 0]
[stochastic_rounding: 1]
[linear_tree: 0]
[max_bin: 127]
[max_bin_by_feature: ]
[min_data_in_bin: 3]
[bin_construct_sample_cnt: 200000]
[data_random_seed: 1]
[is_enable_sparse: 1]
[enable_bundle: 1]
[use_missing: 1]
[zero_as_missing: 0]
[feature_pre_filter: 1]
[pre_partition: 0]
[two_round: 0]
[header: 0]
[label_column: ]
[weight_column: ]
[group_column: ]
[ignore_column: ]
[categorical_feature: ]
[forcedbins_filename: ]
[precise_float_parser: 0]
[parser_config_file: ]
[objective_seed: 5]
[num_class: 1]
[is_unbalance: 0]
[scale_pos_weight: 1.57653]
[sigmoid: 1]
[boost_from_average: 1]
[reg_sqrt: 0]
[alpha: 0.9]
[fair_c: 1]
[poisson_max_delta_step: 0.7]
[tweedie_variance_power: 1.5]
[lambdarank_truncation_level: 30]
[lambdarank_norm: 1]
[label_gain: ]
[lambdarank_position_bias_regularization: 0]
[eval_at: ]
[multi_error_top_k: 1]
[auc_mu_weights: ]
[num_machines: 1]
[local_listen_port: 12400]
[time_out: 120]
[machine_list_filename: ]
[machines: ]
[gpu_platform_id: -1]
[gpu_device_id: -1]
[gpu_use_dp: 0]
[num_gpu: 1]

end of parameters

pandas_categorical:[]
